{"learner":{"attributes":{"scikit_learn":"{\"_estimator_type\": \"classifier\"}"},"feature_names":["qualifying_position","TeamPerfScore","EloRating","RecentFormAvg","CircuitHistoryAvg","DriverExperienceScore","driver_enc","team_enc","circuit_enc"],"feature_types":["float","float","float","float","float","float","int","int","int"],"gradient_booster":{"model":{"cats":{"enc":[],"feature_segments":[],"sorted_idx":[]},"gbtree_model_param":{"num_parallel_tree":"1","num_trees":"250"},"iteration_indptr":[0,1,2,3,4,5,6,7,8,9,10,11,12,13,14,15,16,17,18,19,20,21,22,23,24,25,26,27,28,29,30,31,32,33,34,35,36,37,38,39,40,41,42,43,44,45,46,47,48,49,50,51,52,53,54,55,56,57,58,59,60,61,62,63,64,65,66,67,68,69,70,71,72,73,74,75,76,77,78,79,80,81,82,83,84,85,86,87,88,89,90,91,92,93,94,95,96,97,98,99,100,101,102,103,104,105,106,107,108,109,110,111,112,113,114,115,116,117,118,119,120,121,122,123,124,125,126,127,128,129,130,131,132,133,134,135,136,137,138,139,140,141,142,143,144,145,146,147,148,149,150,151,152,153,154,155,156,157,158,159,160,161,162,163,164,165,166,167,168,169,170,171,172,173,174,175,176,177,178,179,180,181,182,183,184,185,186,187,188,189,190,191,192,193,194,195,196,197,198,199,200,201,202,203,204,205,206,207,208,209,210,211,212,213,214,215,216,217,218,219,220,221,222,223,224,225,226,227,228,229,230,231,232,233,234,235,236,237,238,239,240,241,242,243,244,245,246,247,248,249,250],"tree_info":[0,0,0,0,0,0,0,0,0,0,0,0,0,0,0,0,0,0,0,0,0,0,0,0,0,0,0,0,0,0,0,0,0,0,0,0,0,0,0,0,0,0,0,0,0,0,0,0,0,0,0,0,0,0,0,0,0,0,0,0,0,0,0,0,0,0,0,0,0,0,0,0,0,0,0,0,0,0,0,0,0,0,0,0,0,0,0,0,0,0,0,0,0,0,0,0,0,0,0,0,0,0,0,0,0,0,0,0,0,0,0,0,0,0,0,0,0,0,0,0,0,0,0,0,0,0,0,0,0,0,0,0,0,0,0,0,0,0,0,0,0,0,0,0,0,0,0,0,0,0,0,0,0,0,0,0,0,0,0,0,0,0,0,0,0,0,0,0,0,0,0,0,0,0,0,0,0,0,0,0,0,0,0,0,0,0,0,0,0,0,0,0,0,0,0,0,0,0,0,0,0,0,0,0,0,0,0,0,0,0,0,0,0,0,0,0,0,0,0,0,0,0,0,0,0,0,0,0,0,0,0,0,0,0,0,0,0,0,0,0,0,0,0,0,0,0,0,0,0,0],"trees":[{"base_weights":[3.287424E-2,-1.5505259E0,1.2146281E0,7.4288595E-1,-1.6818727E0,7.156699E-1,1.5367616E0,-9.6E-2,9.1463745E-1,-1.8844317E0,-1.1561986E0,3.7519708E-1,1.4587077E0,1.5511076E0,-9.6E-2,1.1411366E0,1.03023164E-1,-1.9014587E0,-3.5903308E-1,-1.7620953E0,-9.312486E-1,-3.8190927E-2,6.665942E-1,1.9358274E-2,1.4954436E0,1.5862107E0,8.714024E-1,1.3110509E0,8.896021E-2,9.07308E-1,-1.01818174E-1,-6.488067E-1,-1.9186287E0,5.0144877E-2,-1.01818174E-1,-1.2281079E0,-1.5311827E-1,5.6110686E-1,-1.1375406E0,-1.2838328E0,4.0256813E-1,7.611995E-1,-8.0683047E-1,1.1466578E0,1.3198808E-1,1.783395E0,1.4770637E0,-3.0006823E-1,1.4835252E0,1.9358274E-2,1.1868201E-1,9.36905E-2,-8.888889E-2,3.3534877E-2,9.36905E-2,-1.1733333E-1,5.0144877E-2,-1.561204E-1,-1.2339665E-1,-1.3935484E-1,3.3534877E-2,-1.10769235E-1,9.308685E-2,-9.9304914E-2,6.0535755E-2,-1.4117646E-1,-6.3910484E-2,4.0797234E-2,-1.10769235E-1,8.482357E-2,3.5767272E-2,-1.2235294E-1,3.3534877E-2,1.0189092E-1,-8E-2,1.4438975E-1,3.3534877E-2,1.1275114E-1,1.3745883E-1,6.0535755E-2,-1.2E-1,5.0144877E-2,1.2563719E-1],"categories":[],"categories_nodes":[],"categories_segments":[],"categories_sizes":[],"default_left":[0,0,0,0,0,0,0,0,0,0,0,0,0,0,0,0,0,0,0,0,0,0,0,0,0,0,0,0,0,0,0,0,0,0,0,0,0,0,0,0,0,0,0,0,0,0,0,0,0,0,0,0,0,0,0,0,0,0,0,0,0,0,0,0,0,0,0,0,0,0,0,0,0,0,0,0,0,0,0,0,0,0,0],"id":0,"left_children":[1,3,5,7,9,11,13,-1,15,17,19,21,23,25,-1,27,29,31,33,35,37,39,41,-1,43,45,47,49,51,53,-1,55,57,-1,-1,59,-1,61,63,65,67,69,71,73,-1,75,77,79,81,-1,-1,-1,-1,-1,-1,-1,-1,-1,-1,-1,-1,-1,-1,-1,-1,-1,-1,-1,-1,-1,-1,-1,-1,-1,-1,-1,-1,-1,-1,-1,-1,-1,-1],"loss_changes":[2.0013689E3,1.3894751E2,9.733978E1,9.591777E0,4.3890747E1,6.07127E1,1.6439148E1,0E0,4.286106E0,7.3879395E0,1.5114349E1,2.0191069E1,3.0237427E0,7.44104E0,0E0,3.2139072E0,8.154284E0,5.359497E0,4.997938E0,2.5794983E-1,2.8890602E1,3.903677E1,1.43088455E1,0E0,2.0574799E0,4.907593E0,1.5058806E1,2.5850124E0,6.0582366E0,9.834719E-2,0E0,6.827322E0,7.297363E-1,0E0,0E0,9.120745E0,0E0,1.54609E1,1.6852386E1,2.9221058E0,1.0799086E1,8.247337E0,6.322298E0,8.301018E0,0E0,2.760315E0,1.3548279E0,1.105859E1,2.5110245E-2,0E0,0E0,0E0,0E0,0E0,0E0,0E0,0E0,0E0,0E0,0E0,0E0,0E0,0E0,0E0,0E0,0E0,0E0,0E0,0E0,0E0,0E0,0E0,0E0,0E0,0E0,0E0,0E0,0E0,0E0,0E0,0E0,0E0,0E0],"parents":[2147483647,0,0,1,1,2,2,3,3,4,4,5,5,6,6,8,8,9,9,10,10,11,11,12,12,13,13,15,15,16,16,17,17,18,18,19,19,20,20,21,21,22,22,24,24,25,25,26,26,27,27,28,28,29,29,31,31,32,32,35,35,37,37,38,38,39,39,40,40,41,41,42,42,43,43,45,45,46,46,47,47,48,48],"right_children":[2,4,6,8,10,12,14,-1,16,18,20,22,24,26,-1,28,30,32,34,36,38,40,42,-1,44,46,48,50,52,54,-1,56,58,-1,-1,60,-1,62,64,66,68,70,72,74,-1,76,78,80,82,-1,-1,-1,-1,-1,-1,-1,-1,-1,-1,-1,-1,-1,-1,-1,-1,-1,-1,-1,-1,-1,-1,-1,-1,-1,-1,-1,-1,-1,-1,-1,-1,-1,-1],"split_conditions":[5.901288E-1,6.5E0,8.8039213E-1,2.1935484E-1,3.7251356E-1,3.2E1,1.175E1,-9.6E-2,2.5E1,9.806452E-1,2.451613E-1,5.354839E-1,3.8709678E-2,8.7096775E-1,-9.6E-2,6E0,5.7E1,2E0,9.870968E-1,1.0333333E1,2.7741936E-1,5.4E1,9.2903227E-1,1.9358274E-2,3.8E0,2.8E0,9.612903E-1,3.8E0,3E0,6.3333335E0,-1.01818174E-1,2.0614828E-1,7.8064513E-1,5.0144877E-2,-1.01818174E-1,1.02E1,-1.5311827E-1,6.8E1,1.525E1,7.8039217E-1,4.967742E-1,7E0,9.806452E-1,9.483871E-1,1.3198808E-1,3.8E1,3.1E1,6.3E1,2.8E0,1.9358274E-2,1.1868201E-1,9.36905E-2,-8.888889E-2,3.3534877E-2,9.36905E-2,-1.1733333E-1,5.0144877E-2,-1.561204E-1,-1.2339665E-1,-1.3935484E-1,3.3534877E-2,-1.10769235E-1,9.308685E-2,-9.9304914E-2,6.0535755E-2,-1.4117646E-1,-6.3910484E-2,4.0797234E-2,-1.10769235E-1,8.482357E-2,3.5767272E-2,-1.2235294E-1,3.3534877E-2,1.0189092E-1,-8E-2,1.4438975E-1,3.3534877E-2,1.1275114E-1,1.3745883E-1,6.0535755E-2,-1.2E-1,5.0144877E-2,1.2563719E-1],"split_indices":[1,3,1,5,1,6,3,0,6,5,5,5,5,5,0,3,8,8,5,3,5,8,5,0,3,3,5,3,4,3,0,1,5,0,0,3,0,8,3,1,5,3,5,5,0,6,6,8,3,0,0,0,0,0,0,0,0,0,0,0,0,0,0,0,0,0,0,0,0,0,0,0,0,0,0,0,0,0,0,0,0,0,0],"split_type":[0,0,0,0,0,0,0,0,0,0,0,0,0,0,0,0,0,0,0,0,0,0,0,0,0,0,0,0,0,0,0,0,0,0,0,0,0,0,0,0,0,0,0,0,0,0,0,0,0,0,0,0,0,0,0,0,0,0,0,0,0,0,0,0,0,0,0,0,0,0,0,0,0,0,0,0,0,0,0,0,0,0,0],"sum_hessian":[1.0675641E3,4.561154E2,6.114487E2,2.4455128E1,4.3166025E2,2.4114958E2,3.7029916E2,1.5E0,2.2955128E1,3.0972757E2,1.2193269E2,1.6640492E2,7.474466E1,3.6879916E2,1.5E0,1.7629274E1,5.325855E0,3.0606464E2,3.6629274E0,3.1162928E1,9.076977E1,6.9160255E1,9.724466E1,2.4129274E0,7.233173E1,3.494199E2,1.9379274E1,1.4966347E1,2.6629274E0,3.5758548E0,1.75E0,4.6629276E0,3.014017E2,1.9129274E0,1.75E0,8.912928E0,2.225E1,1.0814637E1,7.995513E1,1.7575855E1,5.1584404E1,9.183173E1,5.4129276E0,2.4780983E1,4.755075E1,1.19034195E2,2.303857E2,6.825855E0,1.2553419E1,2.4129274E0,1.2553419E1,1.4129274E0,1.25E0,2.1629274E0,1.4129274E0,2.75E0,1.9129274E0,2.7332587E2,2.8075855E1,6.75E0,2.1629274E0,2.25E0,8.564637E0,7.612927E1,3.8258548E0,7.5E0,1.0075855E1,4.9334404E1,2.25E0,4.5823185E1,4.600855E1,3.25E0,2.1629274E0,2.3780983E1,1E0,1.1687126E2,2.1629274E0,1.8524786E2,4.513782E1,3.8258548E0,3E0,1.9129274E0,1.06404915E1],"tree_param":{"num_deleted":"0","num_feature":"9","num_nodes":"83","size_leaf_vector":"1"}},{"base_weights":[1.2213055E-2,1.3442993E0,-1.3917435E0,1.4696754E0,3.810487E-1,3.8727466E-2,-1.5961567E0,1.4889375E0,-4.901481E-1,9.006558E-1,-3.100385E-1,-5.2626586E-1,4.3730858E-1,-9.8302037E-1,-1.677331E0,-9.0932816E-2,1.4996856E0,-1.13255136E-1,9.968537E-2,-5.6288713E-1,1.1060046E0,2.932538E-1,-1.3861294E-1,-1.4119407E0,2.204624E-1,1.1685233E0,8.095043E-2,8.168438E-1,-1.2093483E0,-1.7302217E0,-1.1814746E0,1.5815591E0,1.12992E0,6.489276E-2,-1.1578941E-1,1.2463484E0,4.7241235E-1,-1.1710203E-1,7.076514E-1,-1.4598267E-1,8.8015564E-2,-1.1523826E-1,6.0503215E-1,1.1372979E-1,5.1030993E-1,-1.2462824E-1,3.6930078E-1,9.538648E-2,1.7526458E-1,-1.3732169E0,6.062647E-2,-1.7435546E0,-3.5627455E-1,2.7215636E-1,-1.6494175E0,1.3748482E-1,1.1978894E-1,-3.1261303E-2,1.06570736E-1,1.0800506E-1,1.3272741E-2,-9.049665E-2,7.801538E-2,7.655207E-2,-9.222041E-2,9.375593E-2,-4.279846E-2,-9.2543795E-4,8.720348E-2,5.845285E-2,-3.427651E-2,1.00585505E-1,-8.4967695E-2,-1.3281545E-1,-5.9541266E-2,5.262596E-2,-9.404877E-2,-6.754866E-2,-1.405201E-1,6.8549104E-2,-1.05176054E-1,5.984923E-2,-9.8774746E-2,-1.4488904E-1,-1.2448092E-2],"categories":[],"categories_nodes":[],"categories_segments":[],"categories_sizes":[],"default_left":[0,0,0,0,0,0,0,0,0,0,0,0,0,0,0,0,0,0,0,0,0,0,0,0,0,0,0,0,0,0,0,0,0,0,0,0,0,0,0,0,0,0,0,0,0,0,0,0,0,0,0,0,0,0,0,0,0,0,0,0,0,0,0,0,0,0,0,0,0,0,0,0,0,0,0,0,0,0,0,0,0,0,0,0,0],"id":1,"left_children":[1,3,5,7,9,11,13,15,17,19,21,23,25,27,29,-1,31,-1,-1,33,35,37,-1,39,41,43,45,47,49,51,53,55,57,-1,-1,59,61,-1,63,-1,-1,-1,65,-1,67,-1,69,-1,71,73,75,77,79,81,83,-1,-1,-1,-1,-1,-1,-1,-1,-1,-1,-1,-1,-1,-1,-1,-1,-1,-1,-1,-1,-1,-1,-1,-1,-1,-1,-1,-1,-1,-1],"loss_changes":[1.9659884E3,6.458417E1,1.497185E2,1.8734497E1,2.3072273E1,1.48608675E1,2.0640625E1,1.5039917E1,1.0432369E1,1.1588572E1,2.4527016E1,1.8384983E1,9.974209E0,2.3300682E1,8.290527E0,0E0,1.2473633E1,0E0,0E0,7.435845E0,2.2865295E0,1.5967259E1,0E0,1.5112703E1,1.0894813E1,1.3713989E0,1.33596945E1,1.4087529E0,1.02929E1,5.8623047E0,2.842958E1,1.8464355E0,2.7855896E1,0E0,0E0,2.6740074E0,7.1292634E0,0E0,9.110167E0,0E0,0E0,0E0,9.317071E0,0E0,1.5422109E0,0E0,7.1782265E0,0E0,6.2243404E0,6.6148834E0,5.6197686E0,2.5946045E0,6.542801E0,8.723594E0,7.2686844E0,0E0,0E0,0E0,0E0,0E0,0E0,0E0,0E0,0E0,0E0,0E0,0E0,0E0,0E0,0E0,0E0,0E0,0E0,0E0,0E0,0E0,0E0,0E0,0E0,0E0,0E0,0E0,0E0,0E0,0E0],"parents":[2147483647,0,0,1,1,2,2,3,3,4,4,5,5,6,6,7,7,8,8,9,9,10,10,11,11,12,12,13,13,14,14,16,16,19,19,20,20,21,21,23,23,24,24,25,25,26,26,27,27,28,28,29,29,30,30,31,31,32,32,35,35,36,36,38,38,42,42,44,44,46,46,48,48,49,49,50,50,51,51,52,52,53,53,54,54],"right_children":[2,4,6,8,10,12,14,16,18,20,22,24,26,28,30,-1,32,-1,-1,34,36,38,-1,40,42,44,46,48,50,52,54,56,58,-1,-1,60,62,-1,64,-1,-1,-1,66,-1,68,-1,70,-1,72,74,76,78,80,82,84,-1,-1,-1,-1,-1,-1,-1,-1,-1,-1,-1,-1,-1,-1,-1,-1,-1,-1,-1,-1,-1,-1,-1,-1,-1,-1,-1,-1,-1,-1],"split_conditions":[6E0,5E0,6.5E0,1.32E1,6.2E0,1E1,8E0,4E0,8.1935483E-1,1.9354838E-1,8.3E1,9.4E1,3.3333333E0,7E0,1.4E2,-9.0932816E-2,4E0,-1.13255136E-1,9.968537E-2,2.8E0,1.1E1,2.1E1,-1.3861294E-1,9.806452E-1,5.2E0,8E0,7E0,8.333333E0,8.064516E-1,9.806452E-1,1.42E2,2E0,3.6E1,6.489276E-2,-1.1578941E-1,5.8E0,3.5E0,-1.1710203E-1,1.175E1,-1.4598267E-1,8.8015564E-2,-1.1523826E-1,2.9032257E-1,1.1372979E-1,7.290323E-1,-1.2462824E-1,6.967742E-1,9.538648E-2,1.9354839E-2,1.16E2,7.7E1,2E0,4E0,1.6E1,2E1,1.3748482E-1,1.1978894E-1,-3.1261303E-2,1.06570736E-1,1.0800506E-1,1.3272741E-2,-9.049665E-2,7.801538E-2,7.655207E-2,-9.222041E-2,9.375593E-2,-4.279846E-2,-9.2543795E-4,8.720348E-2,5.845285E-2,-3.427651E-2,1.00585505E-1,-8.4967695E-2,-1.3281545E-1,-5.9541266E-2,5.262596E-2,-9.404877E-2,-6.754866E-2,-1.405201E-1,6.8549104E-2,-1.05176054E-1,5.984923E-2,-9.8774746E-2,-1.4488904E-1,-1.2448092E-2],"split_indices":[0,0,3,3,3,7,0,7,5,5,8,8,3,8,8,0,0,0,0,3,7,8,0,5,3,0,0,3,5,5,8,0,8,0,0,3,3,0,3,0,0,0,5,0,5,0,5,0,5,8,8,8,7,0,0,0,0,0,0,0,0,0,0,0,0,0,0,0,0,0,0,0,0,0,0,0,0,0,0,0,0,0,0,0,0],"split_type":[0,0,0,0,0,0,0,0,0,0,0,0,0,0,0,0,0,0,0,0,0,0,0,0,0,0,0,0,0,0,0,0,0,0,0,0,0,0,0,0,0,0,0,0,0,0,0,0,0,0,0,0,0,0,0,0,0,0,0,0,0,0,0,0,0,0,0,0,0,0,0,0,0,0,0,0,0,0,0,0,0,0,0,0,0],"sum_hessian":[1.0492228E3,5.384137E2,5.108091E2,4.759399E2,6.2473766E1,6.3968956E1,4.4684015E2,4.715456E2,4.3943095E0,3.548811E1,2.6985657E1,2.6328152E1,3.7640804E1,5.3774307E1,3.9306583E2,1.4953747E0,4.7005023E2,2.986747E0,1.4075625E0,4.152397E0,3.1335712E1,1.9507128E1,7.478529E0,1.1636073E1,1.4692078E1,1.1586757E1,2.6054049E1,5.715209E0,4.8059097E1,3.5293088E2,4.0134964E1,3.821561E2,8.789412E1,1.6586188E0,2.4937782E0,2.4861624E1,6.474087E0,3.239496E0,1.6267632E1,1.0228706E1,1.4073664E0,2.246002E0,1.2446076E1,7.531061E0,4.0556955E0,3.2395916E0,2.2814457E1,3.0637207E0,2.6514883E0,4.24946E1,5.5644994E0,3.4927252E2,3.6583507E0,9.875583E0,3.0259382E1,1.3807567E2,2.4408043E2,1.0206562E1,7.768755E1,2.2456408E1,2.4052167E0,1.2469673E0,5.22712E0,1.47739315E1,1.4937E0,8.293693E0,4.152384E0,2.6501071E0,1.4055885E0,1.5759835E1,7.054621E0,1.4059105E0,1.2455779E0,2.8054388E1,1.4440209E1,4.0674744E0,1.4970249E0,5.8973494E0,3.4337518E2,1.6613927E0,1.996958E0,7.887663E0,1.9879202E0,2.7112257E1,3.1471245E0],"tree_param":{"num_deleted":"0","num_feature":"9","num_nodes":"85","size_leaf_vector":"1"}},{"base_weights":[1.6248694E-2,1.2933375E0,-1.3293834E0,1.4055076E0,3.3215138E-1,2.1395674E-2,-1.5262543E0,1.4236609E0,-4.583137E-1,-1.1794274E-1,4.9416023E-1,5.993477E-1,-3.5043973E-1,-8.1302595E-1,-1.6331758E0,1.5009096E0,1.076448E0,-1.0752778E-1,9.480902E-2,1.2309799E0,2.2696485E-1,9.096192E-1,-6.8410337E-1,-5.9610766E-1,5.6427854E-1,-9.468162E-1,1.1204503E-1,-1.6449035E0,-2.4602616E-1,1.6111373E0,1.4289261E0,-2.9155722E-1,1.3137144E0,1.3525901E0,3.06168E-2,1.14669465E-1,4.7911532E-2,1.1464081E0,-2.6786605E-1,3.0327078E-2,-1.1566051E-1,-1.7582116E-1,-1.4102319E-1,-5.513364E-1,1.2006393E-1,3.8178927E-1,-1.0695742E0,-1.6898358E0,-1.239456E0,-9.007893E-2,4.746565E-2,1.2978888E-1,4.015105E-2,1.319856E-1,1.0809075E-1,9.499011E-2,-6.485196E-2,1.0990951E-1,-1.3436775E-2,5.2866783E-2,1.2785847E-1,-3.4652434E-2,3.2121446E-2,1.1221419E-1,2.5279455E-2,-1.0145233E-1,8.687027E-2,-5.243728E-2,7.20474E-2,5.9441913E-2,-1.14854716E-1,-9.119139E-2,9.782163E-2,-1.3448806E-1,-6.0368918E-2,-1.3758406E-1,-1.0420708E-1,3.7540384E-2,-1.3705489E-1],"categories":[],"categories_nodes":[],"categories_segments":[],"categories_sizes":[],"default_left":[0,0,0,0,0,0,0,0,0,0,0,0,0,0,0,0,0,0,0,0,0,0,0,0,0,0,0,0,0,0,0,0,0,0,0,0,0,0,0,0,0,0,0,0,0,0,0,0,0,0,0,0,0,0,0,0,0,0,0,0,0,0,0,0,0,0,0,0,0,0,0,0,0,0,0,0,0,0,0],"id":2,"left_children":[1,3,5,7,9,11,13,15,17,-1,19,21,23,25,27,29,31,-1,-1,33,35,37,39,41,43,45,-1,47,49,51,53,55,57,59,-1,-1,61,63,65,-1,-1,67,-1,69,-1,71,73,75,77,-1,-1,-1,-1,-1,-1,-1,-1,-1,-1,-1,-1,-1,-1,-1,-1,-1,-1,-1,-1,-1,-1,-1,-1,-1,-1,-1,-1,-1,-1],"loss_changes":[1.7908098E3,5.7177307E1,1.3497308E2,1.684143E1,1.7463552E1,1.4293591E1,3.2447144E1,1.1100464E1,9.412659E0,0E0,1.0199351E1,1.0986011E1,9.439475E0,1.9015774E1,5.8448486E0,7.548218E-1,2.95363E1,0E0,0E0,9.202366E-1,8.633687E0,6.27034E0,5.1131763E0,1.5586514E1,1.0324652E1,9.692345E0,0E0,4.842285E0,3.915334E0,9.8306274E-1,1.9278259E0,1.1782459E1,7.0691376E0,9.4830704E-1,0E0,0E0,6.3173456E0,3.3865604E0,7.323765E0,0E0,0E0,1.346891E1,0E0,6.652352E0,0E0,8.498203E0,8.818611E0,1.7053833E0,3.4590652E1,0E0,0E0,0E0,0E0,0E0,0E0,0E0,0E0,0E0,0E0,0E0,0E0,0E0,0E0,0E0,0E0,0E0,0E0,0E0,0E0,0E0,0E0,0E0,0E0,0E0,0E0,0E0,0E0,0E0,0E0],"parents":[2147483647,0,0,1,1,2,2,3,3,4,4,5,5,6,6,7,7,8,8,10,10,11,11,12,12,13,13,14,14,15,15,16,16,19,19,20,20,21,21,22,22,23,23,24,24,25,25,27,27,28,28,29,29,30,30,31,31,32,32,33,33,36,36,37,37,38,38,41,41,43,43,45,45,46,46,47,47,48,48],"right_children":[2,4,6,8,10,12,14,16,18,-1,20,22,24,26,28,30,32,-1,-1,34,36,38,40,42,44,46,-1,48,50,52,54,56,58,60,-1,-1,62,64,66,-1,-1,68,-1,70,-1,72,74,76,78,-1,-1,-1,-1,-1,-1,-1,-1,-1,-1,-1,-1,-1,-1,-1,-1,-1,-1,-1,-1,-1,-1,-1,-1,-1,-1,-1,-1,-1,-1],"split_conditions":[6E0,5E0,6.5E0,1.32E1,2.1E1,5.7E1,8E0,4E0,8.1935483E-1,-1.1794274E-1,4.4E1,1.1E1,3.5E1,3.6E1,9.806452E-1,2E0,4.1E1,-1.0752778E-1,9.480902E-2,8.75E0,2.2E0,6.2E0,1.4E1,6.83871E-1,1.2E1,5E0,1.1204503E-1,1.4E2,1.4E1,1.02E1,3.3E1,4E0,1.46E2,4.3870968E-1,3.06168E-2,1.14669465E-1,2.6E1,8E0,3.2E1,3.0327078E-2,-1.1566051E-1,5.612903E-1,-1.4102319E-1,9.6E1,1.2006393E-1,2.6E1,2.580645E-1,3.8E1,1.42E2,-9.007893E-2,4.746565E-2,1.2978888E-1,4.015105E-2,1.319856E-1,1.0809075E-1,9.499011E-2,-6.485196E-2,1.0990951E-1,-1.3436775E-2,5.2866783E-2,1.2785847E-1,-3.4652434E-2,3.2121446E-2,1.1221419E-1,2.5279455E-2,-1.0145233E-1,8.687027E-2,-5.243728E-2,7.20474E-2,5.9441913E-2,-1.14854716E-1,-9.119139E-2,9.782163E-2,-1.3448806E-1,-6.0368918E-2,-1.3758406E-1,-1.0420708E-1,3.7540384E-2,-1.3705489E-1],"split_indices":[0,0,3,3,8,8,0,0,5,0,8,0,6,6,5,0,8,0,0,3,3,3,6,5,0,8,0,8,0,3,8,8,8,5,0,0,6,0,6,0,0,5,0,8,0,6,5,6,8,0,0,0,0,0,0,0,0,0,0,0,0,0,0,0,0,0,0,0,0,0,0,0,0,0,0,0,0,0,0],"split_type":[0,0,0,0,0,0,0,0,0,0,0,0,0,0,0,0,0,0,0,0,0,0,0,0,0,0,0,0,0,0,0,0,0,0,0,0,0,0,0,0,0,0,0,0,0,0,0,0,0,0,0,0,0,0,0,0,0,0,0,0,0,0,0,0,0,0,0,0,0,0,0,0,0,0,0,0,0,0,0],"sum_hessian":[1.0400819E3,5.3365186E2,5.0643002E2,4.7746912E2,5.618275E1,6.453447E1,4.4189554E2,4.7309735E2,4.371742E0,3.9573514E0,5.22254E1,2.502527E1,3.9509197E1,5.8730904E1,3.8316464E2,3.8427936E2,8.881799E1,2.9590132E0,1.4127288E0,1.2938651E1,3.9286747E1,2.0387827E1,4.637442E0,3.141919E1,8.090007E0,5.5923157E1,2.8077488E0,3.797681E2,3.396559E0,1.4336449E2,2.4091487E2,1.3093879E1,7.572411E1,1.0796332E1,2.1423185E0,4.1719866E0,3.511476E1,1.6996311E1,3.3915167E0,2.145216E0,2.4922261E0,2.394421E1,7.4749794E0,3.8796866E0,4.2103205E0,4.5515704E0,5.1371586E1,3.3902863E2,4.0739445E1,1.4914443E0,1.9051145E0,1.4147047E2,1.8940202E0,5.748231E1,1.8343257E2,3.0673513E0,1.0026527E1,7.283965E1,2.8844597E0,3.796149E0,7.000183E0,1.4780942E1,2.0333818E1,1.2461511E1,4.5348E0,1.9867344E0,1.4047823E0,1.6834085E1,7.110124E0,1.6396486E0,2.2400382E0,1.4936004E0,3.05797E0,1.5989386E1,3.53822E1,3.1148502E2,2.7543636E1,8.845132E0,3.1894314E1],"tree_param":{"num_deleted":"0","num_feature":"9","num_nodes":"79","size_leaf_vector":"1"}},{"base_weights":[-8.428105E-3,1.1787286E0,-1.2230604E0,-7.775516E-1,1.2413169E0,-1.4034116E0,4.512549E-1,8.2629263E-1,-1.2726829E0,1.3745649E0,8.7628055E-1,-2.8147757E-1,-1.4802155E0,6.1500895E-1,-7.3059756E-1,8.8384904E-2,2.8151112E-2,3.6272798E-2,-1.3183375E-1,1.157534E0,1.459577E0,-3.963626E-1,9.79962E-1,4.1036162E-1,-6.0236865E-1,-1.5013754E0,2.5696668E-1,7.0696336E-1,-8.628992E-2,-1.1598159E-1,8.9228936E-2,1.3399258E0,8.982635E-1,1.4643482E0,4.238086E-2,-9.7351456E-1,4.9839792E-1,5.467723E-1,1.1837629E0,1.0244194E0,-1.01043165E-1,-1.0772203E0,4.9638432E-1,-1.5809947E0,-1.1025062E0,8.7769955E-2,-9.293054E-2,-4.7049662E-1,8.264686E-1,1.0960719E-1,2.6326932E-2,9.335174E-2,-6.774082E-3,1.2559165E-1,1.1036956E-1,8.4508166E-2,-1.3261911E-1,3.7001537E-3,7.869464E-2,7.2872356E-2,-4.492219E-3,1.0933367E-1,7.488061E-2,3.604262E-3,1.193667E-1,-1.07792385E-1,2.0841416E-2,-9.5286876E-2,1.00726515E-1,-3.4434423E-2,-1.2758115E-1,-1.0532312E-1,1.216705E-2,5.3801678E-2,-1.04993835E-1,4.9502373E-2,1.4069505E-1],"categories":[],"categories_nodes":[],"categories_segments":[],"categories_sizes":[],"default_left":[0,0,0,0,0,0,0,0,0,0,0,0,0,0,0,0,0,0,0,0,0,0,0,0,0,0,0,0,0,0,0,0,0,0,0,0,0,0,0,0,0,0,0,0,0,0,0,0,0,0,0,0,0,0,0,0,0,0,0,0,0,0,0,0,0,0,0,0,0,0,0,0,0,0,0,0,0],"id":3,"left_children":[1,3,5,7,9,11,13,15,17,19,21,23,25,27,29,-1,-1,-1,-1,31,33,35,37,39,41,43,45,47,-1,-1,-1,49,51,53,-1,55,57,59,61,63,-1,65,67,69,71,-1,-1,73,75,-1,-1,-1,-1,-1,-1,-1,-1,-1,-1,-1,-1,-1,-1,-1,-1,-1,-1,-1,-1,-1,-1,-1,-1,-1,-1,-1,-1],"loss_changes":[1.4863505E3,6.479224E1,1.5448242E2,1.437349E1,2.3384033E1,3.923761E1,1.0184194E1,2.1422029E-1,9.304682E0,5.110779E0,1.85896E1,7.0671034E0,1.6209473E1,7.727478E0,1.03502865E1,0E0,0E0,0E0,0E0,3.9305725E0,3.8220215E-1,6.2191176E0,1.0638802E1,1.1907131E1,1.169541E1,1.1767883E1,8.466271E0,6.4427776E0,0E0,0E0,0E0,1.4304352E0,1.273885E1,1.5124512E-1,0E0,1.1595884E1,1.054923E0,9.438656E0,2.6215363E0,3.6463833E0,0E0,5.8634815E0,1.0688474E1,4.89563E0,2.009684E1,0E0,0E0,5.3108225E0,6.5442867E0,0E0,0E0,0E0,0E0,0E0,0E0,0E0,0E0,0E0,0E0,0E0,0E0,0E0,0E0,0E0,0E0,0E0,0E0,0E0,0E0,0E0,0E0,0E0,0E0,0E0,0E0,0E0,0E0],"parents":[2147483647,0,0,1,1,2,2,3,3,4,4,5,5,6,6,7,7,8,8,9,9,10,10,11,11,12,12,13,13,14,14,19,19,20,20,21,21,22,22,23,23,24,24,25,25,26,26,27,27,31,31,32,32,33,33,35,35,36,36,37,37,38,38,39,39,41,41,42,42,43,43,44,44,47,47,48,48],"right_children":[2,4,6,8,10,12,14,16,18,20,22,24,26,28,30,-1,-1,-1,-1,32,34,36,38,40,42,44,46,48,-1,-1,-1,50,52,54,-1,56,58,60,62,64,-1,66,68,70,72,-1,-1,74,76,-1,-1,-1,-1,-1,-1,-1,-1,-1,-1,-1,-1,-1,-1,-1,-1,-1,-1,-1,-1,-1,-1,-1,-1,-1,-1,-1,-1],"split_conditions":[6E0,4.9207056E-1,8.8039213E-1,8E0,4E0,6.3333335E0,8.2580644E-1,3.0967742E-1,3E0,8.1916815E-1,1.3548388E-1,5.522913E-1,9.806452E-1,1.175E1,1.3E1,8.8384904E-2,2.8151112E-2,3.6272798E-2,-1.3183375E-1,5.7419354E-1,1.06E1,3E1,7.8039217E-1,1.1E1,1.2E1,5.141243E-1,9.870968E-1,5E0,-8.628992E-2,-1.1598159E-1,8.9228936E-2,1.28E1,3E0,2E0,4.238086E-2,2.2E0,7.024482E-1,2.5E1,2.5E1,3.419355E-1,-1.01043165E-1,6.2E0,3.2E1,7.2E0,1.3E1,8.7769955E-2,-9.293054E-2,2.8E0,9.75E0,1.0960719E-1,2.6326932E-2,9.335174E-2,-6.774082E-3,1.2559165E-1,1.1036956E-1,8.4508166E-2,-1.3261911E-1,3.7001537E-3,7.869464E-2,7.2872356E-2,-4.492219E-3,1.0933367E-1,7.488061E-2,3.604262E-3,1.193667E-1,-1.07792385E-1,2.0841416E-2,-9.5286876E-2,1.00726515E-1,-3.4434423E-2,-1.2758115E-1,-1.0532312E-1,1.216705E-2,5.3801678E-2,-1.04993835E-1,4.9502373E-2,1.4069505E-1],"split_indices":[0,1,1,3,0,3,5,5,0,1,5,1,5,3,0,0,0,0,0,5,3,6,1,0,0,1,5,6,0,0,0,3,0,0,0,3,1,6,6,5,0,3,6,3,3,0,0,3,3,0,0,0,0,0,0,0,0,0,0,0,0,0,0,0,0,0,0,0,0,0,0,0,0,0,0,0,0],"split_type":[0,0,0,0,0,0,0,0,0,0,0,0,0,0,0,0,0,0,0,0,0,0,0,0,0,0,0,0,0,0,0,0,0,0,0,0,0,0,0,0,0,0,0,0,0,0,0,0,0,0,0,0,0,0,0,0,0,0,0,0,0,0,0,0,0,0,0,0,0,0,0,0,0,0,0,0,0],"sum_hessian":[1.0287858E3,5.202923E2,5.084935E2,1.5775791E1,5.0451654E2,4.591927E2,4.9300804E1,3.5636084E0,1.2212183E1,3.6757596E2,1.3694058E2,2.971964E1,4.2947305E2,4.372238E1,5.5784225E0,1.4080886E0,2.15552E0,2.1435533E0,1.0068629E1,1.0757056E2,2.600054E2,1.0103367E1,1.2683721E2,9.328543E0,2.03911E1,4.2443887E2,5.034179E0,4.2023335E1,1.6990466E0,4.168882E0,1.4095409E0,6.0700718E1,4.686984E1,2.5810605E2,1.8993329E0,6.0882287E0,4.015138E0,4.1759037E1,8.507817E1,7.1080513E0,2.2204914E0,1.42515545E1,6.1395445E0,3.5134277E2,7.309609E1,3.30401E0,1.7301694E0,3.601499E0,3.8421837E1,5.8596756E1,2.1039622E0,3.666288E1,1.0206959E1,1.0712746E2,1.509786E2,1.3977375E0,4.690491E0,2.645553E0,1.3695848E0,2.5716772E1,1.6042265E1,4.63463E1,3.8731873E1,2.651568E0,4.4564834E0,1.1850808E1,2.4007466E0,1.7362994E0,4.403245E0,4.5365386E0,3.4680624E2,6.240113E1,1.06949625E1,1.6129433E0,1.9885557E0,3.2782093E1,5.6397433E0],"tree_param":{"num_deleted":"0","num_feature":"9","num_nodes":"77","size_leaf_vector":"1"}},{"base_weights":[2.0553011E-2,1.0970453E0,-1.1060277E0,-1.0274853E0,1.16531E0,-1.2947404E0,5.1991767E-1,-1.2766933E-1,-3.1361994E-1,9.2124236E-1,1.3194284E0,-1.5173775E0,-9.2619336E-1,9.994479E-1,-1.03252735E-2,3.87362E-1,-1.0123834E-1,1.2130694E0,7.0802563E-1,1.4710021E0,1.2369598E0,-4.777318E-1,-1.22783065E-1,-1.0339254E0,-4.1098915E-2,3.653747E-1,1.2721496E0,-5.7387096E-1,9.8178077E-1,8.628371E-2,-1.4635813E-1,1.2454576E0,3.9710113E-1,-2.9132283E-1,8.6011475E-1,1.18909396E-1,5.9724983E-2,5.746582E-1,1.2452176E0,8.4694944E-2,-1.0359565E-1,-1.4651343E0,-8.537881E-1,1.1324081E0,-8.131777E-1,1.0640177E0,-1.0938001E-1,2.3297409E-2,1.3786103E0,-9.705317E-1,5.9473366E-2,3.025959E-1,1.2119266E-1,-8.8286586E-2,6.389842E-2,1.0087597E-1,3.1162878E-2,-8.110782E-3,7.407484E-2,-7.141226E-2,7.501368E-2,1.2046775E-1,6.1709497E-2,9.99838E-3,7.333336E-2,1.0171254E-1,7.997824E-2,-6.2227402E-2,-1.2731738E-1,-3.3880055E-2,-8.536735E-2,1.8435754E-2,1.1684655E-1,-1.17971204E-1,3.750416E-2,1.0766125E-1,1.8955674E-2,1.20139435E-1,2.798759E-2,-1.3082911E-1,-1.2484307E-2,1.0623944E-1,-9.837047E-2],"categories":[],"categories_nodes":[],"categories_segments":[],"categories_sizes":[],"default_left":[0,0,0,0,0,0,0,0,0,0,0,0,0,0,0,0,0,0,0,0,0,0,0,0,0,0,0,0,0,0,0,0,0,0,0,0,0,0,0,0,0,0,0,0,0,0,0,0,0,0,0,0,0,0,0,0,0,0,0,0,0,0,0,0,0,0,0,0,0,0,0,0,0,0,0,0,0,0,0,0,0,0,0],"id":4,"left_children":[1,3,5,7,9,11,13,-1,15,17,19,21,23,25,27,29,-1,31,33,35,37,39,-1,41,43,45,47,49,51,-1,53,55,57,59,61,-1,-1,63,65,-1,-1,67,69,71,73,75,-1,-1,77,79,-1,81,-1,-1,-1,-1,-1,-1,-1,-1,-1,-1,-1,-1,-1,-1,-1,-1,-1,-1,-1,-1,-1,-1,-1,-1,-1,-1,-1,-1,-1,-1,-1],"loss_changes":[1.2312234E3,7.648932E1,1.5288928E2,6.2727165E0,1.7722046E1,3.508972E1,1.3309232E1,0E0,6.2578955E0,1.1472061E1,2.0089111E0,4.2574463E0,1.6174026E1,4.2859726E0,1.5003673E1,2.2767172E0,0E0,1.6794434E0,1.8020138E1,3.2836914E-2,4.0359497E-1,8.895919E0,0E0,1.0522781E1,1.8584627E1,1.3155001E1,1.5627937E0,9.6579075E0,3.063013E0,0E0,4.6100945E0,5.5176544E-1,1.3087993E0,1.2801601E1,4.6677933E0,0E0,0E0,5.5859935E-1,2.2888184E-2,0E0,0E0,2.518715E0,9.580536E0,2.0771503E0,1.1156313E1,1.4173002E0,0E0,0E0,1.590086E0,7.0973206E0,0E0,1.03156395E1,0E0,0E0,0E0,0E0,0E0,0E0,0E0,0E0,0E0,0E0,0E0,0E0,0E0,0E0,0E0,0E0,0E0,0E0,0E0,0E0,0E0,0E0,0E0,0E0,0E0,0E0,0E0,0E0,0E0,0E0,0E0],"parents":[2147483647,0,0,1,1,2,2,3,3,4,4,5,5,6,6,8,8,9,9,10,10,11,11,12,12,13,13,14,14,15,15,17,17,18,18,19,19,20,20,21,21,23,23,24,24,25,25,26,26,27,27,28,28,30,30,31,31,32,32,33,33,34,34,37,37,38,38,41,41,42,42,43,43,44,44,45,45,48,48,49,49,51,51],"right_children":[2,4,6,8,10,12,14,-1,16,18,20,22,24,26,28,30,-1,32,34,36,38,40,-1,42,44,46,48,50,52,-1,54,56,58,60,62,-1,-1,64,66,-1,-1,68,70,72,74,76,-1,-1,78,80,-1,82,-1,-1,-1,-1,-1,-1,-1,-1,-1,-1,-1,-1,-1,-1,-1,-1,-1,-1,-1,-1,-1,-1,-1,-1,-1,-1,-1,-1,-1,-1,-1],"split_conditions":[6E0,5.141243E-1,8.8039213E-1,2.2E1,8.8039213E-1,3.7251356E-1,8E0,-1.2766933E-1,5E0,3E0,2E0,2E0,3.6E1,2.5E1,1.4E1,4E0,-1.0123834E-1,3.8E1,3.5E1,3.8E1,3E0,9E0,-1.22783065E-1,5E0,3.6E1,7.7E1,2.4E1,3.2E1,1.21E2,8.628371E-2,9.4E1,8.579982E-1,9E1,3.5E1,5E0,1.18909396E-1,5.9724983E-2,2.9E1,5E0,8.4694944E-2,-1.0359565E-1,4.3399638E-1,8E0,1.6E1,7.8039217E-1,7E0,-1.0938001E-1,2.3297409E-2,3.1E1,1.22E2,5.9473366E-2,2.1E1,1.2119266E-1,-8.8286586E-2,6.389842E-2,1.0087597E-1,3.1162878E-2,-8.110782E-3,7.407484E-2,-7.141226E-2,7.501368E-2,1.2046775E-1,6.1709497E-2,9.99838E-3,7.333336E-2,1.0171254E-1,7.997824E-2,-6.2227402E-2,-1.2731738E-1,-3.3880055E-2,-8.536735E-2,1.8435754E-2,1.1684655E-1,-1.17971204E-1,3.750416E-2,1.0766125E-1,1.8955674E-2,1.20139435E-1,2.798759E-2,-1.3082911E-1,-1.2484307E-2,1.0623944E-1,-9.837047E-2],"split_indices":[0,1,1,6,1,1,0,0,0,0,0,8,6,6,0,7,0,6,8,6,8,0,0,7,8,8,8,6,8,0,8,1,8,6,7,0,0,6,0,0,0,1,0,8,1,0,0,0,6,8,0,6,0,0,0,0,0,0,0,0,0,0,0,0,0,0,0,0,0,0,0,0,0,0,0,0,0,0,0,0,0,0,0],"split_type":[0,0,0,0,0,0,0,0,0,0,0,0,0,0,0,0,0,0,0,0,0,0,0,0,0,0,0,0,0,0,0,0,0,0,0,0,0,0,0,0,0,0,0,0,0,0,0,0,0,0,0,0,0,0,0,0,0,0,0,0,0,0,0,0,0,0,0,0,0,0,0,0,0,0,0,0,0,0,0,0,0,0,0],"sum_hessian":[1.0132276E3,5.1814545E2,4.9508215E2,1.5693154E1,5.024523E2,4.4377933E2,5.1302834E1,8.048994E0,7.6441603E0,1.9717537E2,3.0527692E2,2.7471097E2,1.6906836E2,2.6475016E1,2.4827818E1,4.743748E0,2.900412E0,8.126272E1,1.1591265E2,1.0163648E2,2.0364044E2,4.9932156E0,2.6971774E2,1.5057277E2,1.8495586E1,8.665723E0,1.7809294E1,1.6102615E1,8.725202E0,1.6221737E0,3.1215746E0,7.765404E1,3.6086786E0,1.5189553E1,1.007231E2,9.849563E1,3.1408482E0,3.3770533E0,2.002634E2,1.6311179E0,3.3620975E0,4.2265377E1,1.08307396E2,7.154514E0,1.1341073E1,6.450566E0,2.2151566E0,2.109327E0,1.5699967E1,1.2578287E1,3.524329E0,4.526365E0,4.198837E0,1.4675137E0,1.654061E0,7.580871E1,1.8453292E0,2.273724E0,1.3349545E0,1.0382974E1,4.8065796E0,1.0240841E1,9.0482254E1,2.0487516E0,1.3283018E0,1.771822E2,2.3081188E1,7.6739206E0,3.4591457E1,3.6885506E1,7.142189E1,2.3627849E0,4.791729E0,7.381936E0,3.9591374E0,4.343706E0,2.1068594E0,1.3611104E1,2.0888634E0,6.3704357E0,6.2078514E0,2.7915173E0,1.7348473E0],"tree_param":{"num_deleted":"0","num_feature":"9","num_nodes":"83","size_leaf_vector":"1"}},{"base_weights":[1.2190086E-2,1.060934E0,-1.0979477E0,1.1697593E0,2.0615146E-1,-1.2863721E0,5.009565E-1,1.4330292E-1,1.194802E0,-1.148773E-1,4.4118088E-1,-1.4504411E0,-1.0011352E0,8.4241474E-1,8.5517175E-2,-9.14797E-2,5.064504E-1,1.0372409E0,1.3169875E0,7.6806056E-1,-4.5440638E-1,-1.1732852E-1,6.2154133E-2,-1.2000844E0,-6.1694247E-1,-9.816172E-3,1.1790111E0,-3.1652555E-1,1.084728E0,9.689101E-2,-4.262796E-1,1.1545756E0,8.239179E-1,1.13954104E-1,1.2443644E0,-2.9517147E-1,8.6900914E-1,-6.541208E-1,4.677272E-2,-7.274421E-2,6.747177E-2,-1.2829282E0,7.919811E-1,-3.4257245E-1,-1.277502E0,-3.6270437E-1,7.763107E-2,1.0595646E-1,4.5936176E-1,6.8758225E-1,-8.197773E-1,3.4212332E-2,9.8625325E-2,6.051039E-2,-9.765531E-2,2.4984453E-2,9.531103E-2,8.3715826E-2,8.627424E-3,9.261254E-2,1.1108414E-1,-1.0250412E-1,7.79016E-2,9.30556E-2,3.1870633E-2,-4.092399E-3,-1.28377E-1,-4.972854E-2,-1.1068903E-1,1.19962126E-1,-6.462681E-2,-3.817343E-2,5.858271E-2,-1.2736155E-1,4.449469E-2,4.8536208E-2,-1.0873894E-1,-8.111177E-2,9.7489476E-2,-9.977556E-3,1.0619511E-1,-1.2820153E-1,3.7073677E-3],"categories":[],"categories_nodes":[],"categories_segments":[],"categories_sizes":[],"default_left":[0,0,0,0,0,0,0,0,0,0,0,0,0,0,0,0,0,0,0,0,0,0,0,0,0,0,0,0,0,0,0,0,0,0,0,0,0,0,0,0,0,0,0,0,0,0,0,0,0,0,0,0,0,0,0,0,0,0,0,0,0,0,0,0,0,0,0,0,0,0,0,0,0,0,0,0,0,0,0,0,0,0,0],"id":5,"left_children":[1,3,5,7,9,11,13,15,17,-1,19,21,23,25,27,-1,29,31,33,35,37,-1,39,41,43,45,47,49,51,-1,53,55,57,-1,59,61,63,65,-1,-1,-1,67,69,71,73,75,-1,-1,77,79,81,-1,-1,-1,-1,-1,-1,-1,-1,-1,-1,-1,-1,-1,-1,-1,-1,-1,-1,-1,-1,-1,-1,-1,-1,-1,-1,-1,-1,-1,-1,-1,-1],"loss_changes":[1.159095E3,4.7380188E1,1.4635052E2,1.1496643E1,2.3415762E1,1.880841E1,7.262684E0,6.1617694E0,7.161682E0,0E0,1.5690173E1,6.756897E0,1.1589905E1,8.120121E0,1.016108E1,0E0,7.095874E0,4.0092316E0,1.451416E-1,4.4170094E0,3.4206235E0,0E0,3.682754E0,1.8381042E1,9.909992E0,3.463361E0,1.5134277E0,9.761028E0,1.7705727E-1,0E0,5.6657534E0,3.5149078E0,1.164967E1,0E0,3.249054E-1,6.387802E0,4.4731407E0,7.227211E0,0E0,0E0,0E0,5.8919067E0,6.666763E0,6.3829794E0,1.0337299E1,7.9171906E0,0E0,0E0,6.7604613E0,3.6066203E0,8.603239E0,0E0,0E0,0E0,0E0,0E0,0E0,0E0,0E0,0E0,0E0,0E0,0E0,0E0,0E0,0E0,0E0,0E0,0E0,0E0,0E0,0E0,0E0,0E0,0E0,0E0,0E0,0E0,0E0,0E0,0E0,0E0,0E0],"parents":[2147483647,0,0,1,1,2,2,3,3,4,4,5,5,6,6,7,7,8,8,10,10,11,11,12,12,13,13,14,14,16,16,17,17,18,18,19,19,20,20,22,22,23,23,24,24,25,25,26,26,27,27,28,28,30,30,31,31,32,32,34,34,35,35,36,36,37,37,41,41,42,42,43,43,44,44,45,45,48,48,49,49,50,50],"right_children":[2,4,6,8,10,12,14,16,18,-1,20,22,24,26,28,-1,30,32,34,36,38,-1,40,42,44,46,48,50,52,-1,54,56,58,-1,60,62,64,66,-1,-1,-1,68,70,72,74,76,-1,-1,78,80,82,-1,-1,-1,-1,-1,-1,-1,-1,-1,-1,-1,-1,-1,-1,-1,-1,-1,-1,-1,-1,-1,-1,-1,-1,-1,-1,-1,-1,-1,-1,-1,-1],"split_conditions":[6E0,5E0,8.8039213E-1,4.9207056E-1,5.193133E-1,3.7251356E-1,8E0,1.6E1,9.4755876E-1,-1.148773E-1,1.3E1,9.806452E-1,1E1,2.5E1,3.2E1,-9.14797E-2,6E0,5.8709675E-1,2E0,1.8709677E-1,1.125E1,-1.1732852E-1,1.4E1,2E1,7.703436E-1,9.354839E-1,5.225806E-1,1.4E1,1.6E0,9.689101E-2,8E0,3.2258064E-2,7.4E0,1.13954104E-1,5.7419354E-1,8.333333E0,6.1290324E-1,6.2E0,4.677272E-2,-7.274421E-2,6.747177E-2,6.3333335E0,9E0,7.354839E-1,9.806452E-1,3.2E0,7.763107E-2,1.0595646E-1,9.7269195E-1,5.9354836E-1,7.419355E-1,3.4212332E-2,9.8625325E-2,6.051039E-2,-9.765531E-2,2.4984453E-2,9.531103E-2,8.3715826E-2,8.627424E-3,9.261254E-2,1.1108414E-1,-1.0250412E-1,7.79016E-2,9.30556E-2,3.1870633E-2,-4.092399E-3,-1.28377E-1,-4.972854E-2,-1.1068903E-1,1.19962126E-1,-6.462681E-2,-3.817343E-2,5.858271E-2,-1.2736155E-1,4.449469E-2,4.8536208E-2,-1.0873894E-1,-8.111177E-2,9.7489476E-2,-9.977556E-3,1.0619511E-1,-1.2820153E-1,3.7073677E-3],"split_indices":[0,0,1,1,1,1,0,6,1,0,7,5,7,6,6,0,7,5,0,5,3,0,0,0,1,5,5,6,3,0,3,5,3,0,5,3,5,3,0,0,0,3,3,5,5,3,0,0,1,5,5,0,0,0,0,0,0,0,0,0,0,0,0,0,0,0,0,0,0,0,0,0,0,0,0,0,0,0,0,0,0,0,0],"split_type":[0,0,0,0,0,0,0,0,0,0,0,0,0,0,0,0,0,0,0,0,0,0,0,0,0,0,0,0,0,0,0,0,0,0,0,0,0,0,0,0,0,0,0,0,0,0,0,0,0,0,0,0,0,0,0,0,0,0,0,0,0,0,0,0,0,0,0,0,0,0,0,0,0,0,0,0,0,0,0,0,0,0,0],"sum_hessian":[9.9357166E2,5.1093613E2,4.8263553E2,4.5290652E2,5.8029613E1,4.319298E2,5.0705715E1,1.0946651E1,4.4195987E2,6.625869E0,5.1403744E1,2.7161246E2,1.6031735E2,2.7266794E1,2.3438921E1,1.9363657E0,9.010285E0,1.9718018E2,2.447797E2,3.7763035E1,1.3640708E1,2.6877048E2,2.8419845E0,1.0422312E2,5.6094227E1,7.9950075E0,1.9271788E1,1.7201105E1,6.2378163E0,4.9625444E0,4.047741E0,1.2436368E2,7.28165E1,9.121791E1,1.5356178E2,3.1076791E0,3.4655357E1,1.1752316E1,1.8883916E0,1.1937132E0,1.6482714E0,1.00403625E2,3.8194942E0,4.070543E1,1.5388798E1,6.3418264E0,1.6531808E0,1.533258E1,3.939208E0,5.6205273E0,1.1580577E1,1.8623474E0,4.375469E0,1.6456691E0,2.4020717E0,5.6049633E0,1.1875872E2,5.5200756E1,1.7615738E1,1.0153325E2,5.2028534E1,1.7432276E0,1.3644515E0,2.0419592E1,1.4235766E1,7.835823E0,3.9164932E0,1.4214318E1,8.618931E1,2.6917229E0,1.1277714E0,3.666965E1,4.0357766E0,1.3248228E1,2.1405702E0,3.4129562E0,2.9288704E0,1.2256263E0,2.7135816E0,2.8312812E0,2.789246E0,5.6364737E0,5.9441037E0],"tree_param":{"num_deleted":"0","num_feature":"9","num_nodes":"83","size_leaf_vector":"1"}},{"base_weights":[1.3240505E-2,9.6909916E-1,-9.5660347E-1,1.1447312E0,5.557954E-1,-1.1349741E0,4.9487177E-1,9.401635E-1,1.2290152E0,-8.3229005E-1,6.638371E-1,-1.3924336E0,-7.2398365E-1,6.5351135E-1,-6.542316E-1,1.0944551E0,6.378934E-1,1.045769E0,1.008075E-1,4.673656E-1,-1.2943046E-1,-2.3141202E-1,7.7307403E-1,-1.4083825E0,1.0808341E-2,-8.4430915E-1,2.0757177E-1,-8.3463565E-2,7.216815E-1,2.077911E-2,-1.01059444E-1,1.1326722E0,3.1416708E-1,7.550792E-1,-5.425896E-1,1.1121763E0,2.557513E-1,3.232704E-3,7.378273E-2,6.789214E-1,-1.0933399E-1,-1.0083539E-1,8.0416715E-1,-3.5903996E-1,-1.141574E-1,-4.0907893E-1,-1.0219209E0,6.888645E-1,-1.03041716E-1,8.222681E-1,-5.9079107E-2,1.12717256E-1,7.6801255E-2,-1.3106992E-2,6.826869E-2,-1.6553788E-2,6.6948235E-2,6.8983965E-2,-1.2374585E-1,9.2115656E-2,1.4764158E-2,-2.0869315E-2,6.8361774E-2,9.2712164E-2,-8.979138E-2,4.2478535E-2,8.500621E-2,8.6565025E-2,-9.412096E-2,-6.3413708E-3,-1.2113246E-1,-8.4774815E-2,4.1373357E-2,7.734488E-2,-1.8359894E-2,3.4326933E-2,8.517969E-2,-1.0546243E-1,7.861613E-2],"categories":[],"categories_nodes":[],"categories_segments":[],"categories_sizes":[],"default_left":[0,0,0,0,0,0,0,0,0,0,0,0,0,0,0,0,0,0,0,0,0,0,0,0,0,0,0,0,0,0,0,0,0,0,0,0,0,0,0,0,0,0,0,0,0,0,0,0,0,0,0,0,0,0,0,0,0,0,0,0,0,0,0,0,0,0,0,0,0,0,0,0,0,0,0,0,0,0,0],"id":6,"left_children":[1,3,5,7,9,11,13,15,17,19,21,23,25,27,29,31,33,35,-1,37,-1,39,41,43,-1,45,47,-1,49,-1,-1,51,53,55,57,59,61,-1,-1,63,-1,-1,65,67,-1,69,71,73,-1,75,77,-1,-1,-1,-1,-1,-1,-1,-1,-1,-1,-1,-1,-1,-1,-1,-1,-1,-1,-1,-1,-1,-1,-1,-1,-1,-1,-1,-1],"loss_changes":[8.885028E2,3.440207E1,1.2373227E2,4.668762E0,2.2432037E1,4.385498E1,1.0045698E1,4.097206E0,2.6153564E-2,1.1965839E1,1.3470367E1,6.514801E0,1.871312E1,6.173498E0,4.1688757E0,1.6324615E0,5.54817E0,1.8192139E0,0E0,9.168178E-1,0E0,1.6998278E1,8.687172E0,4.4997864E0,0E0,1.0919273E1,1.5082851E1,0E0,3.6331081E0,0E0,0E0,1.6612778E0,1.2988625E0,2.8642368E0,6.8872156E0,1.1240196E0,1.5864136E0,0E0,0E0,9.339773E0,0E0,0E0,7.917328E0,8.116179E0,0E0,1.59795265E1,6.563141E0,4.1965504E0,0E0,3.4043903E0,9.352778E0,0E0,0E0,0E0,0E0,0E0,0E0,0E0,0E0,0E0,0E0,0E0,0E0,0E0,0E0,0E0,0E0,0E0,0E0,0E0,0E0,0E0,0E0,0E0,0E0,0E0,0E0,0E0,0E0],"parents":[2147483647,0,0,1,1,2,2,3,3,4,4,5,5,6,6,7,7,8,8,9,9,10,10,11,11,12,12,13,13,14,14,15,15,16,16,17,17,19,19,21,21,22,22,23,23,25,25,26,26,28,28,31,31,32,32,33,33,34,34,35,35,36,36,39,39,42,42,43,43,45,45,46,46,47,47,49,49,50,50],"right_children":[2,4,6,8,10,12,14,16,18,20,22,24,26,28,30,32,34,36,-1,38,-1,40,42,44,-1,46,48,-1,50,-1,-1,52,54,56,58,60,62,-1,-1,64,-1,-1,66,68,-1,70,72,74,-1,76,78,-1,-1,-1,-1,-1,-1,-1,-1,-1,-1,-1,-1,-1,-1,-1,-1,-1,-1,-1,-1,-1,-1,-1,-1,-1,-1,-1,-1],"split_conditions":[6E0,4E0,8.8039213E-1,8.1916815E-1,1.9E1,3.7251356E-1,8.2580644E-1,3E0,5E0,4E0,5.193133E-1,9.806452E-1,3.6E1,1.5E1,7E0,3.8E1,1.34E2,1.33E2,1.008075E-1,9.4755876E-1,-1.2943046E-1,5E0,4.5161292E-2,2E0,1.0808341E-2,8E0,1.03E2,-8.3463565E-2,1.43E2,2.077911E-2,-1.01059444E-1,3.483871E-1,9E1,1.4838709E-1,1.6129032E-1,4.8387095E-1,4.7096774E-1,3.232704E-3,7.378273E-2,6E0,-1.0933399E-1,-1.0083539E-1,8.8039213E-1,9E0,-1.141574E-1,7.703436E-1,9.806452E-1,4.3870968E-1,-1.03041716E-1,7.1E1,1.4E1,1.12717256E-1,7.6801255E-2,-1.3106992E-2,6.826869E-2,-1.6553788E-2,6.6948235E-2,6.8983965E-2,-1.2374585E-1,9.2115656E-2,1.4764158E-2,-2.0869315E-2,6.8361774E-2,9.2712164E-2,-8.979138E-2,4.2478535E-2,8.500621E-2,8.6565025E-2,-9.412096E-2,-6.3413708E-3,-1.2113246E-1,-8.4774815E-2,4.1373357E-2,7.734488E-2,-1.8359894E-2,3.4326933E-2,8.517969E-2,-1.0546243E-1,7.861613E-2],"split_indices":[0,0,1,1,8,1,5,0,6,8,1,5,6,8,0,6,8,8,0,1,0,0,5,8,0,0,8,0,8,0,0,5,8,5,5,5,5,0,0,7,0,0,1,0,0,1,5,5,0,8,0,0,0,0,0,0,0,0,0,0,0,0,0,0,0,0,0,0,0,0,0,0,0,0,0,0,0,0,0],"split_type":[0,0,0,0,0,0,0,0,0,0,0,0,0,0,0,0,0,0,0,0,0,0,0,0,0,0,0,0,0,0,0,0,0,0,0,0,0,0,0,0,0,0,0,0,0,0,0,0,0,0,0,0,0,0,0,0,0,0,0,0,0,0,0,0,0,0,0,0,0,0,0,0,0,0,0,0,0,0,0],"sum_hessian":[9.564363E2,4.8169156E2,4.7474472E2,3.3679987E2,1.448917E2,4.2298276E2,5.1761967E1,1.0182139E2,2.3497849E2,9.979161E0,1.3491254E2,2.585989E2,1.6438383E2,4.5861797E1,5.900169E0,6.56765E1,3.614489E1,3.90979E1,1.9588058E2,3.9121335E0,6.0670276E0,1.454999E1,1.2036254E2,2.56004E2,2.5949244E0,1.4566277E2,1.8721062E1,1.2188716E0,4.4642925E1,2.5886998E0,3.311469E0,6.2179455E1,3.4970453E0,3.320865E1,2.9362383E0,3.5690075E1,3.4078252E0,2.5797627E0,1.3323706E0,8.298022E0,6.251967E0,1.2172279E0,1.1914532E2,4.808799E0,2.5119519E2,4.3172806E1,1.0248997E2,1.4571311E1,4.1497498E0,3.9500805E1,5.142118E0,2.115911E1,4.1020348E1,2.2227097E0,1.2743357E0,2.4818048E0,3.0726845E1,1.2828748E0,1.6533635E0,3.400907E1,1.6810055E0,2.1323607E0,1.2754644E0,6.8337317E0,1.4642911E0,5.9401867E1,5.974345E1,1.6233547E0,3.185444E0,3.407485E1,9.097958E0,1.0033944E2,2.150525E0,1.1145365E1,3.4259462E0,1.6124422E1,2.3376385E1,2.2079527E0,2.934165E0],"tree_param":{"num_deleted":"0","num_feature":"9","num_nodes":"79","size_leaf_vector":"1"}},{"base_weights":[1.962919E-2,9.364357E-1,-9.522714E-1,1.0453382E0,1.5445335E-1,-1.1086231E0,4.1407898E-1,1.0656794E0,-1.0411406E-1,-1.1168348E-1,4.072342E-1,-1.3097623E-1,-1.2005013E0,9.458416E-1,-1.3079904E-1,8.87135E-1,1.1836535E0,6.6299534E-1,-3.5582605E-1,7.532206E-1,-6.27257E-1,-1.3405143E0,-9.241866E-1,1.1424752E0,3.5015732E-1,-1.1875528E0,5.527414E-1,1.1189572E0,6.430939E-1,1.0507818E-1,1.1059954E0,-8.5204564E-2,7.458875E-1,1.1119844E-1,-8.559988E-1,1.1759578E-1,-4.7851855E-1,2.4322914E-1,-1.2267687E0,-1.35668E0,3.633793E-2,4.586623E-1,-9.791291E-1,1.0891973E-1,6.833163E-1,7.678714E-1,-8.0117404E-2,5.8946237E-2,-1.3178723E-1,-7.385E-2,7.4119425E-1,3.99178E-2,9.38421E-2,6.724311E-2,-1.4742803E-4,8.1891574E-2,1.0116492E-1,8.709195E-2,3.9634764E-2,-4.5764353E-2,6.9079675E-2,-1.23802036E-1,4.8992965E-2,-9.9284224E-2,5.6782138E-2,4.47775E-2,-8.187461E-2,-1.2273338E-1,7.762358E-2,-1.4344254E-2,-1.1007381E-1,-7.185527E-2,6.3728526E-2,-7.7489644E-2,1.0167837E-1,-5.5558383E-2,-9.2478715E-2,-5.2141896E-3,8.04357E-2,7.504584E-2,2.1922044E-2,4.3845656E-3,8.7436184E-2],"categories":[],"categories_nodes":[],"categories_segments":[],"categories_sizes":[],"default_left":[0,0,0,0,0,0,0,0,0,0,0,0,0,0,0,0,0,0,0,0,0,0,0,0,0,0,0,0,0,0,0,0,0,0,0,0,0,0,0,0,0,0,0,0,0,0,0,0,0,0,0,0,0,0,0,0,0,0,0,0,0,0,0,0,0,0,0,0,0,0,0,0,0,0,0,0,0,0,0,0,0,0,0],"id":7,"left_children":[1,3,5,7,9,11,13,15,-1,-1,17,19,21,23,25,27,29,31,33,35,37,39,41,43,45,47,49,51,53,-1,55,-1,57,59,61,-1,63,65,67,69,71,73,75,-1,77,79,-1,-1,-1,-1,81,-1,-1,-1,-1,-1,-1,-1,-1,-1,-1,-1,-1,-1,-1,-1,-1,-1,-1,-1,-1,-1,-1,-1,-1,-1,-1,-1,-1,-1,-1,-1,-1],"loss_changes":[8.3718866E2,4.1010925E1,9.789319E1,2.1636566E1,2.4191828E1,3.6628235E1,1.3903777E1,7.8198547E0,0E0,0E0,1.05011015E1,1.6402609E1,1.3238953E1,2.4334526E0,1.8258537E1,8.984756E0,1.0735168E0,6.4873734E0,3.3315907E0,1.2626152E1,1.2717644E1,5.528076E0,1.0255699E1,8.54229E-1,4.972663E0,9.963536E0,4.9895587E0,2.3182907E0,1.09420395E1,0E0,8.3547974E-1,0E0,2.7667866E0,4.631689E0,7.857823E0,0E0,6.0658693E0,4.7981734E0,1.1117907E1,5.26593E0,3.4370084E0,7.7391663E0,5.4626923E0,0E0,1.9313762E0,2.685914E-1,0E0,0E0,0E0,0E0,3.3882408E0,0E0,0E0,0E0,0E0,0E0,0E0,0E0,0E0,0E0,0E0,0E0,0E0,0E0,0E0,0E0,0E0,0E0,0E0,0E0,0E0,0E0,0E0,0E0,0E0,0E0,0E0,0E0,0E0,0E0,0E0,0E0,0E0],"parents":[2147483647,0,0,1,1,2,2,3,3,4,4,5,5,6,6,7,7,10,10,11,11,12,12,13,13,14,14,15,15,16,16,17,17,18,18,19,19,20,20,21,21,22,22,23,23,24,24,25,25,26,26,27,27,28,28,30,30,32,32,33,33,34,34,36,36,37,37,38,38,39,39,40,40,41,41,42,42,44,44,45,45,50,50],"right_children":[2,4,6,8,10,12,14,16,-1,-1,18,20,22,24,26,28,30,32,34,36,38,40,42,44,46,48,50,52,54,-1,56,-1,58,60,62,-1,64,66,68,70,72,74,76,-1,78,80,-1,-1,-1,-1,82,-1,-1,-1,-1,-1,-1,-1,-1,-1,-1,-1,-1,-1,-1,-1,-1,-1,-1,-1,-1,-1,-1,-1,-1,-1,-1,-1,-1,-1,-1,-1,-1],"split_conditions":[6E0,5E0,8.8039213E-1,1.32E1,5.2575105E-1,6.5E0,8E0,8.8039213E-1,-1.0411406E-1,-1.1168348E-1,1.1E1,5.522913E-1,3.7251356E-1,5.6774193E-1,6.1290324E-1,3E0,2E0,1.4193548E-1,6.2E0,9E0,2.7741936E-1,9.806452E-1,7E0,1E0,9.6E1,7.096774E-2,2.7E1,3E0,6.1290324E-1,1.0507818E-1,5.483871E-1,-8.5204564E-2,5E0,5.4E0,1.125E1,1.1759578E-1,6.5806454E-1,1.07E2,9.677419E-1,2E0,1.4E1,6.573276E-1,4.862745E-1,1.0891973E-1,1.14E2,7.7E1,-8.0117404E-2,5.8946237E-2,-1.3178723E-1,-7.385E-2,4E0,3.99178E-2,9.38421E-2,6.724311E-2,-1.4742803E-4,8.1891574E-2,1.0116492E-1,8.709195E-2,3.9634764E-2,-4.5764353E-2,6.9079675E-2,-1.23802036E-1,4.8992965E-2,-9.9284224E-2,5.6782138E-2,4.47775E-2,-8.187461E-2,-1.2273338E-1,7.762358E-2,-1.4344254E-2,-1.1007381E-1,-7.185527E-2,6.3728526E-2,-7.7489644E-2,1.0167837E-1,-5.5558383E-2,-9.2478715E-2,-5.2141896E-3,8.04357E-2,7.504584E-2,2.1922044E-2,4.3845656E-3,8.7436184E-2],"split_indices":[0,0,1,3,1,3,0,1,0,0,7,1,1,5,5,0,0,5,3,0,5,5,8,1,8,5,8,3,5,0,5,0,3,3,3,0,5,8,5,8,0,1,1,0,8,8,0,0,0,0,3,0,0,0,0,0,0,0,0,0,0,0,0,0,0,0,0,0,0,0,0,0,0,0,0,0,0,0,0,0,0,0,0],"split_type":[0,0,0,0,0,0,0,0,0,0,0,0,0,0,0,0,0,0,0,0,0,0,0,0,0,0,0,0,0,0,0,0,0,0,0,0,0,0,0,0,0,0,0,0,0,0,0,0,0,0,0,0,0,0,0,0,0,0,0,0,0,0,0,0,0,0,0,0,0,0,0,0,0,0,0,0,0,0,0,0,0,0,0],"sum_hessian":[9.375576E2,4.8247202E2,4.5508563E2,4.231986E2,5.9273403E1,4.085265E2,4.6559147E1,4.2010312E2,3.0954754E0,7.674867E0,5.1598537E1,3.5303066E1,3.7322342E2,2.3190739E1,2.3368408E1,1.705336E2,2.4956952E2,3.874365E1,1.2854889E1,1.2505305E1,2.279776E1,2.451505E2,1.2807294E2,1.6745258E1,6.445481E0,8.8888645E0,1.4479544E1,8.561767E1,8.491593E1,8.745478E1,1.6211475E2,1.2310593E0,3.751259E1,7.0498953E0,5.804993E0,7.7830806E0,4.722224E0,9.540019E0,1.3257742E1,2.4232005E2,2.8304439E0,4.6132755E0,1.23459656E2,1.0006773E1,6.738485E0,5.2537284E0,1.1917528E0,1.5980197E0,7.2908444E0,1.1981109E0,1.3281433E1,7.688271E0,7.79294E1,6.478038E1,2.0135555E1,1.1160747E2,5.0507282E1,1.4424692E1,2.3087896E1,3.8200412E0,3.229854E0,3.9098356E0,1.8951578E0,2.8493721E0,1.8728523E0,8.079404E0,1.4606147E0,1.1895168E1,1.3625742E0,4.0626473E0,2.382574E2,1.188328E0,1.6421157E0,1.6034739E0,3.0098016E0,4.91995E1,7.4260155E1,2.267483E0,4.471002E0,3.2381787E0,2.0155494E0,4.891818E0,8.389615E0],"tree_param":{"num_deleted":"0","num_feature":"9","num_nodes":"83","size_leaf_vector":"1"}},{"base_weights":[3.2006323E-2,8.814517E-1,-8.906369E-1,-3.5528162E-1,9.3529165E-1,-1.1421205E0,8.481091E-3,1.9474244E-1,-1.0174973E-1,1.0597756E0,6.28025E-1,1.5258946E-1,-1.1969588E0,-3.374133E-1,3.654825E-1,-4.137966E-1,9.7391057E-1,1.0755568E0,3.225347E-1,-7.2986734E-1,7.275804E-1,6.038107E-1,-9.610753E-2,-1.3154448E0,-9.0144295E-1,7.0371604E-1,-6.501869E-1,6.537956E-1,1.0854912E-1,1.7550974E-1,-1.05229594E-1,1.0858182E-1,2.824719E-1,1.2089696E0,9.8562413E-1,8.810835E-1,-5.0558376E-1,3.3327183E-1,-1.2460049E-1,7.586881E-1,-3.8504404E-1,1.3455834E0,-4.393277E-1,-1.03313714E-1,-1.06822535E-1,-7.2435164E-1,-1.1172419E-1,1.2595907E0,-8.413932E-2,-8.265989E-1,7.0432216E-2,1.038678E0,-5.3914435E-2,-6.345717E-1,5.338486E-1,-9.927975E-2,9.382471E-2,-6.372701E-2,8.8653974E-2,5.7639193E-2,9.848303E-2,9.0882555E-2,6.802169E-2,1.5557017E-2,9.109131E-2,4.614928E-2,-1.1366777E-1,-5.670784E-3,6.845062E-2,1.8233992E-2,6.4991444E-2,-1.0982822E-1,5.4837875E-2,1.2158988E-1,4.5365598E-2,-9.754422E-2,8.895438E-2,8.246582E-2,-8.096211E-2,-6.255638E-2,8.316246E-2,2.1220414E-2,1.2698548E-1,-8.914341E-2,8.173938E-3,1.016414E-1,2.506072E-2,-3.0897893E-2,6.91278E-2,-1.16836384E-1,6.0524516E-2,7.2786584E-2,-8.364515E-3],"categories":[],"categories_nodes":[],"categories_segments":[],"categories_sizes":[],"default_left":[0,0,0,0,0,0,0,0,0,0,0,0,0,0,0,0,0,0,0,0,0,0,0,0,0,0,0,0,0,0,0,0,0,0,0,0,0,0,0,0,0,0,0,0,0,0,0,0,0,0,0,0,0,0,0,0,0,0,0,0,0,0,0,0,0,0,0,0,0,0,0,0,0,0,0,0,0,0,0,0,0,0,0,0,0,0,0,0,0,0,0,0,0],"id":8,"left_children":[1,3,5,7,9,11,13,15,-1,17,19,21,23,25,27,29,31,33,35,37,39,41,-1,43,45,47,49,51,53,55,-1,-1,57,59,61,63,65,67,-1,69,71,73,75,77,-1,79,-1,81,-1,83,-1,85,87,89,91,-1,-1,-1,-1,-1,-1,-1,-1,-1,-1,-1,-1,-1,-1,-1,-1,-1,-1,-1,-1,-1,-1,-1,-1,-1,-1,-1,-1,-1,-1,-1,-1,-1,-1,-1,-1,-1,-1],"loss_changes":[7.152951E2,3.197168E1,9.8935425E1,1.0606737E1,1.676178E1,2.4456604E1,1.2054025E1,6.90314E0,0E0,3.4086914E0,1.8621666E1,9.754486E0,1.0302795E1,1.6606485E1,3.486598E0,4.6933126E0,1.2891655E0,2.5950928E0,4.235205E0,9.001483E0,4.6247635E0,9.6834545E0,0E0,5.441162E0,7.500435E0,1.2972794E1,1.1165144E1,6.166007E0,8.743633E0,9.8770275E0,0E0,0E0,4.0131526E0,4.354248E-1,2.982254E0,7.0835876E-1,4.7187757E0,1.1254146E0,0E0,3.295601E0,5.242876E0,1.0332775E-1,8.17645E0,6.01067E0,0E0,8.289234E0,0E0,2.681571E0,0E0,9.512932E0,0E0,2.0539064E0,3.034311E0,1.2751219E1,4.2852683E0,0E0,0E0,0E0,0E0,0E0,0E0,0E0,0E0,0E0,0E0,0E0,0E0,0E0,0E0,0E0,0E0,0E0,0E0,0E0,0E0,0E0,0E0,0E0,0E0,0E0,0E0,0E0,0E0,0E0,0E0,0E0,0E0,0E0,0E0,0E0,0E0,0E0,0E0],"parents":[2147483647,0,0,1,1,2,2,3,3,4,4,5,5,6,6,7,7,9,9,10,10,11,11,12,12,13,13,14,14,15,15,16,16,17,17,18,18,19,19,20,20,21,21,23,23,24,24,25,25,26,26,27,27,28,28,29,29,32,32,33,33,34,34,35,35,36,36,37,37,39,39,40,40,41,41,42,42,43,43,45,45,47,47,49,49,51,51,52,52,53,53,54,54],"right_children":[2,4,6,8,10,12,14,16,-1,18,20,22,24,26,28,30,32,34,36,38,40,42,-1,44,46,48,50,52,54,56,-1,-1,58,60,62,64,66,68,-1,70,72,74,76,78,-1,80,-1,82,-1,84,-1,86,88,90,92,-1,-1,-1,-1,-1,-1,-1,-1,-1,-1,-1,-1,-1,-1,-1,-1,-1,-1,-1,-1,-1,-1,-1,-1,-1,-1,-1,-1,-1,-1,-1,-1,-1,-1,-1,-1,-1,-1],"split_conditions":[6E0,5.141243E-1,6.573276E-1,5E0,4E0,6.5E0,8.8039213E-1,1.24E1,-1.0174973E-1,1.1E1,2.1E1,5.522913E-1,3.7251356E-1,2.5E1,8E0,4.4516128E-1,1.3E1,2E0,3E0,4E0,1.5E2,9E0,-9.610753E-2,2E0,4.3870968E-1,7.703436E-1,9.741936E-1,5.225806E-1,6E-1,4.3225807E-1,-1.05229594E-1,1.0858182E-1,7.225807E-1,7.096774E-2,6.4E1,5.548387E-1,3.3548388E-1,9.4755876E-1,-1.2460049E-1,3.6E1,8.028933E-1,1.18E2,6.5806454E-1,9E0,-1.06822535E-1,4.3225807E-1,-1.1172419E-1,1.0967742E-1,-8.413932E-2,1.5E1,7.0432216E-2,1E0,9.354839E-1,1.4E1,7.612903E-1,-9.927975E-2,9.382471E-2,-6.372701E-2,8.8653974E-2,5.7639193E-2,9.848303E-2,9.0882555E-2,6.802169E-2,1.5557017E-2,9.109131E-2,4.614928E-2,-1.1366777E-1,-5.670784E-3,6.845062E-2,1.8233992E-2,6.4991444E-2,-1.0982822E-1,5.4837875E-2,1.2158988E-1,4.5365598E-2,-9.754422E-2,8.895438E-2,8.246582E-2,-8.096211E-2,-6.255638E-2,8.316246E-2,2.1220414E-2,1.2698548E-1,-8.914341E-2,8.173938E-3,1.016414E-1,2.506072E-2,-3.0897893E-2,6.91278E-2,-1.16836384E-1,6.0524516E-2,7.2786584E-2,-8.364515E-3],"split_indices":[0,1,1,0,0,3,1,3,0,3,8,1,1,8,0,5,3,0,0,8,8,0,0,8,5,1,5,5,5,5,0,0,5,5,8,5,5,1,0,8,1,8,5,0,0,5,0,5,0,0,0,1,5,0,5,0,0,0,0,0,0,0,0,0,0,0,0,0,0,0,0,0,0,0,0,0,0,0,0,0,0,0,0,0,0,0,0,0,0,0,0,0,0],"split_type":[0,0,0,0,0,0,0,0,0,0,0,0,0,0,0,0,0,0,0,0,0,0,0,0,0,0,0,0,0,0,0,0,0,0,0,0,0,0,0,0,0,0,0,0,0,0,0,0,0,0,0,0,0,0,0,0,0,0,0,0,0,0,0,0,0,0,0,0,0,0,0,0,0,0,0,0,0,0,0,0,0,0,0,0,0,0,0,0,0,0,0,0,0],"sum_hessian":[9.106729E2,4.7416782E2,4.3650507E2,1.9547693E1,4.5462012E2,3.4088828E2,9.56168E1,1.2708912E1,6.838782E0,3.2179944E2,1.3282066E2,1.3779426E1,3.2710886E2,4.8591724E1,4.702507E1,7.3990755E0,5.309836E0,3.146062E2,7.193251E0,8.640249E0,1.2418042E2,1.0750628E1,3.028797E0,2.3102779E2,9.608107E1,1.0936726E1,3.7655E1,2.1431498E1,2.5593573E1,4.961415E0,2.4376607E0,2.7964177E0,2.5134182E0,1.2166944E2,1.9293675E2,4.257618E0,2.9356334E0,4.043506E0,4.5967426E0,1.2111237E2,3.0680459E0,6.1134415E0,4.6371875E0,3.8199413E0,2.2720784E2,7.258264E1,2.3498425E1,8.520984E0,2.415742E0,3.4175915E1,3.479084E0,1.3579004E1,7.8524942E0,9.136833E0,1.645674E1,1.9489212E0,3.0124938E0,1.104837E0,1.4085813E0,6.7135806E0,1.1495586E2,8.7884285E1,1.05052475E2,1.64016E0,2.6174579E0,1.5143692E0,1.4212643E0,2.7669697E0,1.2765366E0,1.161051E1,1.0950187E2,1.4487798E0,1.619266E0,4.217067E0,1.8963746E0,3.2280889E0,1.4090984E0,1.6394352E0,2.1805062E0,7.0826355E1,1.7562895E0,2.5608044E0,5.960179E0,2.5940823E1,8.235091E0,9.720854E0,3.8581505E0,6.1907864E0,1.6617075E0,5.701901E0,3.4349322E0,1.0089463E1,6.367276E0],"tree_param":{"num_deleted":"0","num_feature":"9","num_nodes":"93","size_leaf_vector":"1"}},{"base_weights":[2.2898963E-2,8.6737686E-1,-8.729976E-1,1.0482303E0,4.476114E-1,-1.0384961E0,3.5459438E-1,1.0646914E0,-8.738584E-2,1.6130681E-1,8.175639E-1,-1.2771504E0,-6.8017024E-1,6.81715E-1,-6.8633514E-3,9.239782E-1,1.1657746E0,-6.572654E-1,3.3842978E-1,1.1091896E0,3.1822383E-1,-2.6651284E-1,-1.2964354E0,-8.3436733E-1,3.7918785E-1,1.0287085E0,5.9892055E-2,-5.026787E-1,9.1311175E-1,9.457296E-1,7.752477E-2,1.2845775E0,1.0908214E0,5.959233E-1,-1.2009025E0,4.0461665E-1,-1.0937402E-1,2.4187678E-1,1.1991788E0,5.719512E-1,-4.932267E-1,7.795591E-2,-8.538743E-2,-1.0552856E-1,-1.0225959E0,-1.1598439E0,-6.7256445E-1,7.3341835E-1,-8.945668E-2,2.299353E-2,1.0952599E0,6.1206836E-1,-5.5489486E-1,-1.1528051E-1,1.5002145E-1,9.308749E-2,1.0008477E-2,8.185104E-2,6.4218596E-2,6.083464E-2,-3.1557348E-2,1.0387449E-1,2.956797E-2,9.752323E-2,7.861563E-2,1.8413443E-2,7.325484E-2,7.597707E-2,-1.305348E-1,-1.8722992E-2,4.703731E-2,6.623317E-2,-1.6334552E-2,2.89261E-2,9.888604E-2,-1.0495767E-1,6.491616E-2,-8.357523E-2,7.001893E-2,9.2350155E-2,-1.0286826E-1,5.044119E-2,-1.0126469E-1,6.0032237E-2,-6.6945255E-2,9.009045E-2,1.3685061E-2,2.5693582E-2,9.384156E-2,8.98208E-2,-7.0049018E-3,-1.10915214E-1,8.885254E-2,4.837449E-2,-8.712848E-2],"categories":[],"categories_nodes":[],"categories_segments":[],"categories_sizes":[],"default_left":[0,0,0,0,0,0,0,0,0,0,0,0,0,0,0,0,0,0,0,0,0,0,0,0,0,0,0,0,0,0,0,0,0,0,0,0,0,0,0,0,0,0,0,0,0,0,0,0,0,0,0,0,0,0,0,0,0,0,0,0,0,0,0,0,0,0,0,0,0,0,0,0,0,0,0,0,0,0,0,0,0,0,0,0,0,0,0,0,0,0,0,0,0,0,0],"id":9,"left_children":[1,3,5,7,9,11,13,15,-1,17,19,21,23,25,27,29,31,33,35,37,39,41,43,45,47,49,51,53,55,57,59,61,63,65,67,69,-1,71,73,75,77,-1,-1,-1,79,81,83,85,-1,-1,87,89,91,-1,93,-1,-1,-1,-1,-1,-1,-1,-1,-1,-1,-1,-1,-1,-1,-1,-1,-1,-1,-1,-1,-1,-1,-1,-1,-1,-1,-1,-1,-1,-1,-1,-1,-1,-1,-1,-1,-1,-1,-1,-1],"loss_changes":[6.596875E2,3.3605164E1,8.63288E1,1.2189972E1,1.4368134E1,3.1037079E1,6.036171E0,3.34729E0,0E0,1.1592235E1,8.308258E0,3.9969788E0,2.5029922E1,5.718194E0,1.1964348E1,2.4096909E0,1.7669678E-1,1.0450953E1,7.9055295E0,2.6091843E0,5.0857925E0,6.437132E0,6.866455E-3,6.1915283E0,1.1381406E1,5.303459E-1,3.9570115E0,1.0649221E1,1.6680427E0,6.3311005E-1,1.7401303E0,3.1764984E-1,4.0031433E-1,3.730489E-1,1.1090167E1,7.5695076E0,0E0,1.4093039E0,5.853386E-1,9.293178E0,5.513687E0,0E0,0E0,0E0,1.360322E1,8.875664E0,2.185096E1,3.4967375E0,0E0,0E0,5.48069E-1,2.2739978E0,9.249505E0,0E0,6.8288913E0,0E0,0E0,0E0,0E0,0E0,0E0,0E0,0E0,0E0,0E0,0E0,0E0,0E0,0E0,0E0,0E0,0E0,0E0,0E0,0E0,0E0,0E0,0E0,0E0,0E0,0E0,0E0,0E0,0E0,0E0,0E0,0E0,0E0,0E0,0E0,0E0,0E0,0E0,0E0,0E0],"parents":[2147483647,0,0,1,1,2,2,3,3,4,4,5,5,6,6,7,7,9,9,10,10,11,11,12,12,13,13,14,14,15,15,16,16,17,17,18,18,19,19,20,20,21,21,22,22,23,23,24,24,25,25,26,26,27,27,28,28,29,29,30,30,31,31,32,32,33,33,34,34,35,35,37,37,38,38,39,39,40,40,44,44,45,45,46,46,47,47,50,50,51,51,52,52,54,54],"right_children":[2,4,6,8,10,12,14,16,-1,18,20,22,24,26,28,30,32,34,36,38,40,42,44,46,48,50,52,54,56,58,60,62,64,66,68,70,-1,72,74,76,78,-1,-1,-1,80,82,84,86,-1,-1,88,90,92,-1,94,-1,-1,-1,-1,-1,-1,-1,-1,-1,-1,-1,-1,-1,-1,-1,-1,-1,-1,-1,-1,-1,-1,-1,-1,-1,-1,-1,-1,-1,-1,-1,-1,-1,-1,-1,-1,-1,-1,-1,-1],"split_conditions":[6E0,4E0,8.8039213E-1,1.32E1,8.8039213E-1,3.7251356E-1,8E0,9.4755876E-1,-8.738584E-2,4E1,2.5E1,2E0,3.6E1,5.225806E-1,1.4E1,9.2258066E-1,4.5E1,1.4E1,1.45E2,1.2258065E-1,6.5E0,9E0,7.8064513E-1,2.580645E-1,1.03E2,2.2E0,6.2E0,6.1290324E-1,1.6E1,5.6774193E-1,7.7E1,9.6E0,2E0,6.214689E-1,1E0,5.522913E-1,-1.0937402E-1,2.2E0,2.3E1,3.3E1,8.75E0,7.795591E-2,-8.538743E-2,-1.0552856E-1,7.870968E-1,5E0,2.8387097E-1,3.6E1,-8.945668E-2,2.299353E-2,2E1,6.3225806E-1,9.354839E-1,-1.1528051E-1,8.2580644E-1,9.308749E-2,1.0008477E-2,8.185104E-2,6.4218596E-2,6.083464E-2,-3.1557348E-2,1.0387449E-1,2.956797E-2,9.752323E-2,7.861563E-2,1.8413443E-2,7.325484E-2,7.597707E-2,-1.305348E-1,-1.8722992E-2,4.703731E-2,6.623317E-2,-1.6334552E-2,2.89261E-2,9.888604E-2,-1.0495767E-1,6.491616E-2,-8.357523E-2,7.001893E-2,9.2350155E-2,-1.0286826E-1,5.044119E-2,-1.0126469E-1,6.0032237E-2,-6.6945255E-2,9.009045E-2,1.3685061E-2,2.5693582E-2,9.384156E-2,8.98208E-2,-7.0049018E-3,-1.10915214E-1,8.885254E-2,4.837449E-2,-8.712848E-2],"split_indices":[0,0,1,3,1,1,0,1,0,8,6,8,6,5,0,5,8,6,8,5,3,0,5,5,8,3,3,5,0,5,8,3,0,1,8,1,0,3,8,8,3,0,0,0,5,8,5,8,0,0,8,5,5,0,5,0,0,0,0,0,0,0,0,0,0,0,0,0,0,0,0,0,0,0,0,0,0,0,0,0,0,0,0,0,0,0,0,0,0,0,0,0,0,0,0],"split_type":[0,0,0,0,0,0,0,0,0,0,0,0,0,0,0,0,0,0,0,0,0,0,0,0,0,0,0,0,0,0,0,0,0,0,0,0,0,0,0,0,0,0,0,0,0,0,0,0,0,0,0,0,0,0,0,0,0,0,0,0,0,0,0,0,0,0,0,0,0,0,0,0,0,0,0,0,0,0,0,0,0,0,0,0,0,0,0,0,0,0,0,0,0,0,0],"sum_hessian":[8.699502E2,4.4784265E2,4.2210754E2,3.119456E2,1.3589705E2,3.7209708E2,5.0010468E1,3.1006375E2,1.8818362E0,7.7418915E1,5.8478134E1,2.2180507E2,1.5029202E2,2.5787064E1,2.4223406E1,1.3386163E2,1.7620213E2,1.3289734E1,6.412918E1,3.6146477E1,2.2331657E1,4.4307346E0,2.1737433E2,1.3138097E2,1.8911055E1,1.6131128E1,9.655934E0,1.6035019E1,8.188387E0,1.3039362E2,3.4680235E0,6.1919495E1,1.1428263E2,3.9917643E0,9.29797E0,6.2467857E1,1.6613255E0,3.744545E0,3.240193E1,1.7237059E1,5.094599E0,1.6527869E0,2.777948E0,1.9722833E2,2.0145992E1,4.157733E1,8.9803635E1,1.5705823E1,3.2052326E0,1.7670813E0,1.4364047E1,5.0893297E0,4.5666046E0,6.0827045E0,9.952314E0,5.85169E0,2.3366969E0,8.060491E1,4.9788704E1,1.1675788E0,2.3004446E0,6.058312E1,1.3363775E0,4.758301E1,6.669962E1,2.6641853E0,1.327579E0,1.3506141E0,7.9473557E0,1.3871929E1,4.859593E1,1.2483627E0,2.4961824E0,1.822752E0,3.0579182E1,1.4391004E0,1.5797958E1,3.7999072E0,1.2946914E0,1.8082159E0,1.8337776E1,2.0466866E0,3.9530643E1,8.923918E0,8.0879715E1,8.657476E0,7.0483465E0,1.7795064E0,1.2584541E1,2.5922995E0,2.4970303E0,3.1576777E0,1.408927E0,7.655409E0,2.2969058E0],"tree_param":{"num_deleted":"0","num_feature":"9","num_nodes":"95","size_leaf_vector":"1"}},{"base_weights":[4.172807E-2,6.804806E-1,-1.0102633E0,9.1258824E-1,3.0727528E-2,-3.859596E-2,-1.0805553E0,1.108187E0,8.2963085E-1,3.4188545E-1,-4.7730687E-1,-6.594906E-1,4.5248553E-1,-8.2401055E-1,-1.2591629E0,1.1261736E0,1.721278E-3,8.405579E-1,-7.857626E-2,1.1039468E0,2.0002455E-1,-1.2605622E0,-1.983241E-1,7.0389025E-2,-1.1480892E-1,1.0297883E0,-1.7734674E-1,-1.1548872E0,-5.424736E-1,-1.2822475E0,2.5492296E-1,1.917432E-3,1.1411023E0,9.0839005E-1,6.579723E-1,-8.271389E-2,8.564445E-2,1.057673E-1,6.187379E-1,3.9326385E-1,-4.4678774E-1,-1.0633822E-1,-1.233504E-1,2.2664563E-1,-9.925645E-1,1.7329529E-2,1.0611845E-1,-9.520438E-2,6.231344E-1,3.9069209E-1,-1.2327206E0,1.5549271E-1,-7.268627E-1,-8.513171E-1,-1.04314245E-1,-5.5055663E-2,7.8241006E-2,9.186467E-2,2.2069057E-2,7.467377E-2,3.5822608E-2,-1.2723769E-2,6.3078254E-2,-1.9306764E-2,1.0326025E-1,-3.598938E-2,4.500813E-2,3.8483016E-2,-1.3135566E-1,-6.767638E-2,6.4068384E-2,-2.8802553E-2,6.916601E-2,-1.0314469E-1,5.4573726E-2,8.137541E-2,1.18033355E-2,9.765319E-2,-6.1004236E-2,-1.0577931E-1,-2.5780324E-2,-7.709603E-2,8.169063E-3,-1.0550759E-1,1.1604216E-1],"categories":[],"categories_nodes":[],"categories_segments":[],"categories_sizes":[],"default_left":[0,0,0,0,0,0,0,0,0,0,0,0,0,0,0,0,0,0,0,0,0,0,0,0,0,0,0,0,0,0,0,0,0,0,0,0,0,0,0,0,0,0,0,0,0,0,0,0,0,0,0,0,0,0,0,0,0,0,0,0,0,0,0,0,0,0,0,0,0,0,0,0,0,0,0,0,0,0,0,0,0,0,0,0,0],"id":10,"left_children":[1,3,5,7,9,11,13,15,17,19,21,23,25,27,29,31,-1,33,35,37,39,41,43,-1,-1,45,47,49,51,53,55,-1,57,59,61,-1,-1,-1,63,65,67,69,-1,71,73,-1,-1,-1,75,77,79,-1,81,83,-1,-1,-1,-1,-1,-1,-1,-1,-1,-1,-1,-1,-1,-1,-1,-1,-1,-1,-1,-1,-1,-1,-1,-1,-1,-1,-1,-1,-1,-1,-1],"loss_changes":[5.7002026E2,7.956691E1,2.1848236E1,5.3898315E0,2.2285692E1,7.207082E0,1.2655457E1,2.180893E0,2.8150787E0,9.224709E0,1.145665E1,1.36958275E1,4.998447E0,1.1069077E1,6.4185486E0,1.7984772E0,0E0,2.7933807E0,5.7261744E0,6.099186E-1,9.535099E0,4.344137E0,1.3958979E1,0E0,0E0,1.4153433E0,6.567933E0,7.3183746E0,3.337298E1,4.953308E-1,3.026866E0,0E0,3.6569214E-1,1.8535156E0,8.420204E0,0E0,0E0,0E0,3.8163123E0,8.56084E0,2.0409912E1,3.2237153E0,0E0,1.0536453E1,8.020399E0,0E0,0E0,0E0,7.252406E-1,4.2656837E0,4.003578E0,0E0,1.2984287E1,1.3871492E1,0E0,0E0,0E0,0E0,0E0,0E0,0E0,0E0,0E0,0E0,0E0,0E0,0E0,0E0,0E0,0E0,0E0,0E0,0E0,0E0,0E0,0E0,0E0,0E0,0E0,0E0,0E0,0E0,0E0,0E0,0E0],"parents":[2147483647,0,0,1,1,2,2,3,3,4,4,5,5,6,6,7,7,8,8,9,9,10,10,11,11,12,12,13,13,14,14,15,15,17,17,18,18,19,19,20,20,21,21,22,22,25,25,26,26,27,27,28,28,29,29,30,30,32,32,33,33,34,34,38,38,39,39,40,40,41,41,43,43,44,44,48,48,49,49,50,50,52,52,53,53],"right_children":[2,4,6,8,10,12,14,16,18,20,22,24,26,28,30,32,-1,34,36,38,40,42,44,-1,-1,46,48,50,52,54,56,-1,58,60,62,-1,-1,-1,64,66,68,70,-1,72,74,-1,-1,-1,76,78,80,-1,82,84,-1,-1,-1,-1,-1,-1,-1,-1,-1,-1,-1,-1,-1,-1,-1,-1,-1,-1,-1,-1,-1,-1,-1,-1,-1,-1,-1,-1,-1,-1,-1],"split_conditions":[8E0,5E0,6E0,2E0,8.333333E0,6.1290324E-1,1.3E1,1.05E1,1.32E1,3E0,1E1,1.1612903E-1,6.83871E-1,3.2903227E-1,1.54E2,2.5806451E-2,1.721278E-3,4E0,8.1935483E-1,6.9E1,3E1,2.4E1,1.22E1,7.0389025E-2,-1.1480892E-1,4.6E0,1.4E1,2E0,3.3548388E-1,9E0,2E1,1.917432E-3,1.53E2,3.8E1,3.6E1,-8.271389E-2,8.564445E-2,1.057673E-1,1.31E2,2E-1,4.967742E-1,5.032258E-1,-1.233504E-1,2.6E1,3.6E1,1.7329529E-2,1.0611845E-1,-9.520438E-2,1.5E1,9E0,1.41E2,1.5549271E-1,1.2E1,2E1,-1.04314245E-1,-5.5055663E-2,7.8241006E-2,9.186467E-2,2.2069057E-2,7.467377E-2,3.5822608E-2,-1.2723769E-2,6.3078254E-2,-1.9306764E-2,1.0326025E-1,-3.598938E-2,4.500813E-2,3.8483016E-2,-1.3135566E-1,-6.767638E-2,6.4068384E-2,-2.8802553E-2,6.916601E-2,-1.0314469E-1,5.4573726E-2,8.137541E-2,1.18033355E-2,9.765319E-2,-6.1004236E-2,-1.0577931E-1,-2.5780324E-2,-7.709603E-2,8.169063E-3,-1.0550759E-1,1.1604216E-1],"split_indices":[0,0,3,0,3,5,0,3,3,3,3,5,5,5,8,5,0,0,5,8,6,8,3,0,0,3,0,8,5,3,0,0,8,6,8,0,0,0,8,5,5,5,0,6,6,0,0,0,0,0,8,0,0,0,0,0,0,0,0,0,0,0,0,0,0,0,0,0,0,0,0,0,0,0,0,0,0,0,0,0,0,0,0,0,0],"split_type":[0,0,0,0,0,0,0,0,0,0,0,0,0,0,0,0,0,0,0,0,0,0,0,0,0,0,0,0,0,0,0,0,0,0,0,0,0,0,0,0,0,0,0,0,0,0,0,0,0,0,0,0,0,0,0,0,0,0,0,0,0,0,0,0,0,0,0,0,0,0,0,0,0,0,0,0,0,0,0,0,0,0,0,0,0],"sum_hessian":[8.4626904E2,5.2677356E2,3.1949545E2,3.878276E2,1.3894597E2,2.165808E1,2.9783737E2,1.1181926E2,2.7600836E2,8.6372246E1,5.2573723E1,9.413398E0,1.2244682E1,1.2455094E2,1.7328642E2,1.0996279E2,1.8564693E0,2.7280066E2,3.2077038E0,1.2490851E1,7.388139E1,1.2883725E1,3.9689995E1,3.1088839E0,6.3045135E0,6.0574336E0,6.1872487E0,5.58321E1,6.871884E1,1.708349E2,2.4515274E0,1.504291E0,1.08458496E2,1.9600713E2,7.6793526E1,1.8062818E0,1.401422E0,7.426977E0,5.0638742E0,5.7188084E1,1.6693308E1,2.7948182E0,1.0088907E1,2.6321135E1,1.3368862E1,2.0817964E0,3.975637E0,2.516672E0,3.6705768E0,2.4841146E0,5.3347984E1,4.085994E0,6.463285E1,1.0112002E1,1.607229E2,1.084839E0,1.3666884E0,1.0723822E2,1.2202754E0,1.8493044E2,1.1076705E1,1.0546915E1,6.624661E1,2.50226E0,2.5616145E0,9.2877655E0,4.790032E1,9.734067E0,6.9592423E0,1.576793E0,1.2180251E0,1.3938288E1,1.2382847E1,1.1552103E1,1.8167589E0,1.3845778E0,2.285999E0,1.4105225E0,1.0735922E0,4.8160393E1,5.1875925E0,5.0144184E1,1.4488663E1,8.759839E0,1.3521633E0],"tree_param":{"num_deleted":"0","num_feature":"9","num_nodes":"85","size_leaf_vector":"1"}},{"base_weights":[2.0338591E-2,-1.1035322E0,5.7911664E-1,4.2330772E-1,-1.1295956E0,2.5379315E-1,8.6419475E-1,8.203928E-2,-7.615578E-2,-1.00832984E-1,-1.0166562E0,8.451053E-2,8.081215E-1,8.7953156E-1,-8.396862E-2,-1.091972E0,-3.498305E-1,2.909579E-1,-1.8374427E-1,4.373466E-3,8.409405E-1,7.998155E-1,1.1341845E0,-1.1498384E0,-5.8489794E-1,2.9092002E-1,-8.970271E-2,-8.939113E-1,3.6766738E-1,-5.075869E-1,5.4946847E-2,6.7381996E-1,1.0655057E0,9.088435E-1,6.4442426E-1,7.4267E-1,9.674982E-2,-2.6728826E-2,-9.422791E-2,1.0129484E-1,-7.177266E-2,-8.075118E-2,8.138647E-2,-1.331524E-2,-1.0483282E-1,9.045322E-2,2.4772095E-2,1.8879313E-2,-5.1601544E-2,2.9295074E-2,-1.587264E-2,5.9912987E-2,-3.1773437E-2,8.780467E-2,2.2108324E-2,7.457213E-2,-1.3904484E-2,4.677232E-2,9.6030205E-2,7.149857E-2,-1.453522E-2],"categories":[],"categories_nodes":[],"categories_segments":[],"categories_sizes":[],"default_left":[0,0,0,0,0,0,0,0,0,0,0,0,0,0,0,0,0,0,0,0,0,0,0,0,0,0,0,0,0,0,0,0,0,0,0,0,0,0,0,0,0,0,0,0,0,0,0,0,0,0,0,0,0,0,0,0,0,0,0,0,0],"id":11,"left_children":[1,3,5,7,9,11,13,-1,-1,-1,15,17,19,21,-1,23,25,27,29,-1,31,33,35,37,39,41,-1,43,45,47,49,51,53,55,57,59,-1,-1,-1,-1,-1,-1,-1,-1,-1,-1,-1,-1,-1,-1,-1,-1,-1,-1,-1,-1,-1,-1,-1,-1,-1],"loss_changes":[5.1268005E2,1.1266907E1,5.0348434E1,5.346921E0,2.6608887E0,2.3960392E1,9.4405365E0,0E0,0E0,0E0,7.069641E0,1.0978801E1,1.4324265E0,4.9477844E0,0E0,3.2254333E0,8.496563E0,1.0496512E1,6.7071447E0,0E0,1.4295692E0,3.1932373E0,1.0555725E0,2.3072205E0,1.0177574E1,1.030558E1,0E0,1.9311767E0,4.3321667E0,3.909008E0,4.066371E0,3.154686E0,2.707386E-1,3.4082642E0,2.4685402E0,2.0172777E0,0E0,0E0,0E0,0E0,0E0,0E0,0E0,0E0,0E0,0E0,0E0,0E0,0E0,0E0,0E0,0E0,0E0,0E0,0E0,0E0,0E0,0E0,0E0,0E0,0E0],"parents":[2147483647,0,0,1,1,2,2,3,3,4,4,5,5,6,6,10,10,11,11,12,12,13,13,15,15,16,16,17,17,18,18,20,20,21,21,22,22,23,23,24,24,25,25,27,27,28,28,29,29,30,30,31,31,32,32,33,33,34,34,35,35],"right_children":[2,4,6,8,10,12,14,-1,-1,-1,16,18,20,22,-1,24,26,28,30,-1,32,34,36,38,40,42,-1,44,46,48,50,52,54,56,58,60,-1,-1,-1,-1,-1,-1,-1,-1,-1,-1,-1,-1,-1,-1,-1,-1,-1,-1,-1,-1,-1,-1,-1,-1,-1],"split_conditions":[5.141243E-1,6.3333335E0,8.8039213E-1,2.9032257E-1,2.0614828E-1,3.5E1,1.175E1,8.203928E-2,-7.615578E-2,-1.00832984E-1,1.5E1,7.8E0,3.8709678E-2,3.2E1,-8.396862E-2,7.8064513E-1,1.25E1,1.7419355E-1,1.02E1,4.373466E-3,6.2E0,2.1E1,1.2903225E-1,7.4E0,7.870968E-1,1.0666667E1,-8.970271E-2,6.573276E-1,5.193133E-1,1.4838709E-1,2.5E1,6E0,3.548387E-1,9.2E0,9.6E0,9.677419E-2,9.674982E-2,-2.6728826E-2,-9.422791E-2,1.0129484E-1,-7.177266E-2,-8.075118E-2,8.138647E-2,-1.331524E-2,-1.0483282E-1,9.045322E-2,2.4772095E-2,1.8879313E-2,-5.1601544E-2,2.9295074E-2,-1.587264E-2,5.9912987E-2,-3.1773437E-2,8.780467E-2,2.2108324E-2,7.457213E-2,-1.3904484E-2,4.677232E-2,9.6030205E-2,7.149857E-2,-1.453522E-2],"split_indices":[1,3,1,5,1,6,3,0,0,0,7,3,5,6,0,5,3,5,3,0,3,6,5,3,5,3,0,1,1,5,6,3,5,3,3,5,0,0,0,0,0,0,0,0,0,0,0,0,0,0,0,0,0,0,0,0,0,0,0,0,0],"split_type":[0,0,0,0,0,0,0,0,0,0,0,0,0,0,0,0,0,0,0,0,0,0,0,0,0,0,0,0,0,0,0,0,0,0,0,0,0,0,0,0,0,0,0,0,0,0,0,0,0,0,0,0,0,0,0,0,0,0,0,0,0],"sum_hessian":[8.1435913E2,2.701106E2,5.4424854E2,4.2776413E0,2.6583295E2,2.5506522E2,2.8918335E2,3.1518617E0,1.1257797E0,1.18460846E2,1.473721E2,1.9627773E2,5.8787487E1,2.8742044E2,1.7629048E0,1.3184325E2,1.5528844E1,1.10868965E2,8.540876E1,2.5650547E0,5.6222435E1,2.2205084E2,6.53696E1,1.1720087E2,1.4642383E1,8.82331E0,6.705534E0,6.0935564E0,1.04775406E2,3.576215E1,4.964661E1,3.4527657E1,2.1694778E1,1.27643135E2,9.4407715E1,1.2283803E1,5.3085796E1,4.320017E0,1.1288085E2,1.6725537E0,1.2969829E1,3.0227993E0,5.8005104E0,2.728131E0,3.3654256E0,6.097365E0,9.867805E1,5.466812E0,3.0295338E1,2.2078382E1,2.7568228E1,3.254639E1,1.9812651E0,2.047245E1,1.2223278E0,1.2508912E2,2.5540125E0,8.7095726E1,7.3119884E0,1.0586805E1,1.6969984E0],"tree_param":{"num_deleted":"0","num_feature":"9","num_nodes":"61","size_leaf_vector":"1"}},{"base_weights":[5.6385253E-2,7.5582916E-1,-7.299807E-1,9.140531E-1,4.0739462E-1,-5.9179016E-3,-9.3142843E-1,9.314995E-1,-8.5111216E-2,-7.000669E-1,4.926391E-1,-8.964591E-2,6.6166624E-2,-9.5801455E-1,6.4304066E-1,7.6391065E-1,9.88712E-1,3.962449E-1,-1.1008123E-1,3.9004847E-1,1.0457538E0,3.3927378E-1,-2.0460977E-1,-7.425454E-1,-1.154258E0,1.0238338E-1,-6.62743E-2,-7.019817E-2,8.245793E-1,1.1246159E0,9.153775E-1,-6.02646E-2,7.0633315E-2,4.3956646E-1,-8.30185E-1,8.636155E-2,1.04248255E-1,8.249756E-1,-9.845403E-2,-5.6545544E-1,4.3997958E-1,8.0685645E-1,-7.8764755E-1,-1.177988E0,4.9910367E-2,7.799618E-2,4.7654532E-2,9.240476E-2,2.1889207E-3,-3.1800397E-2,7.457825E-2,6.226974E-2,-7.153786E-2,6.071691E-2,2.1438036E-2,-1.4746627E-1,7.4045315E-2,-1.1398017E-1,7.0267126E-2,1.8746739E-3,9.917412E-2,7.379385E-2,-2.5248464E-2,-1.1046591E-1,1.239391E-2,7.8164876E-2,-5.204656E-2,2.6267968E-2,8.283123E-2,-8.6454846E-2,-4.894866E-2,-2.7669532E-2,-9.669844E-2],"categories":[],"categories_nodes":[],"categories_segments":[],"categories_sizes":[],"default_left":[0,0,0,0,0,0,0,0,0,0,0,0,0,0,0,0,0,0,0,0,0,0,0,0,0,0,0,0,0,0,0,0,0,0,0,0,0,0,0,0,0,0,0,0,0,0,0,0,0,0,0,0,0,0,0,0,0,0,0,0,0,0,0,0,0,0,0,0,0,0,0,0,0],"id":12,"left_children":[1,3,5,7,9,11,13,15,-1,17,19,-1,21,23,25,27,29,31,-1,33,35,37,39,41,43,-1,-1,-1,45,47,49,51,-1,53,55,57,-1,59,61,63,65,67,69,71,-1,-1,-1,-1,-1,-1,-1,-1,-1,-1,-1,-1,-1,-1,-1,-1,-1,-1,-1,-1,-1,-1,-1,-1,-1,-1,-1,-1,-1],"loss_changes":[4.4437436E2,2.3199066E1,5.5475098E1,1.1109802E1,1.3120239E1,6.8072276E0,1.3072052E1,2.0367737E0,0E0,8.018677E0,6.755518E0,0E0,5.959744E0,1.1533508E1,6.2506227E0,8.541576E0,1.1003113E0,1.0802696E0,0E0,6.895714E0,4.617178E0,8.592108E0,9.696972E0,1.0591972E1,7.12973E0,0E0,0E0,0E0,2.0429535E0,2.3240738E0,3.5600128E0,3.0190206E0,0E0,5.5249996E0,9.819798E0,7.382108E0,0E0,6.3139668E0,5.15688E0,1.5767308E1,9.503956E0,1.5475965E-1,6.4966354E0,3.4166718E0,0E0,0E0,0E0,0E0,0E0,0E0,0E0,0E0,0E0,0E0,0E0,0E0,0E0,0E0,0E0,0E0,0E0,0E0,0E0,0E0,0E0,0E0,0E0,0E0,0E0,0E0,0E0,0E0,0E0],"parents":[2147483647,0,0,1,1,2,2,3,3,4,4,5,5,6,6,7,7,9,9,10,10,12,12,13,13,14,14,15,15,16,16,17,17,19,19,20,20,21,21,22,22,23,23,24,24,28,28,29,29,30,30,31,31,33,33,34,34,35,35,37,37,38,38,39,39,40,40,41,41,42,42,43,43],"right_children":[2,4,6,8,10,12,14,16,-1,18,20,-1,22,24,26,28,30,32,-1,34,36,38,40,42,44,-1,-1,-1,46,48,50,52,-1,54,56,58,-1,60,62,64,66,68,70,72,-1,-1,-1,-1,-1,-1,-1,-1,-1,-1,-1,-1,-1,-1,-1,-1,-1,-1,-1,-1,-1,-1,-1,-1,-1,-1,-1,-1,-1],"split_conditions":[6E0,4E0,7.6E0,1.32E1,1.9E1,5E0,9.806452E-1,6E0,-8.5111216E-2,4E0,8.129032E-1,-8.964591E-2,8E0,1.3E1,9.870968E-1,2.8E0,4.5E1,1.3548388E-1,-1.1008123E-1,7.548387E-1,8.8E1,3.7419355E-1,1.4E1,2E0,1.54E2,1.0238338E-1,-6.62743E-2,-7.019817E-2,6.1290324E-1,1.02E1,4.8E1,2.2E0,7.0633315E-2,5.2E0,1.32E2,6.8E0,1.04248255E-1,2.0645161E-1,1.8E1,6.1290324E-1,1.6E1,1.125E1,2.451613E-1,9E0,4.9910367E-2,7.799618E-2,4.7654532E-2,9.240476E-2,2.1889207E-3,-3.1800397E-2,7.457825E-2,6.226974E-2,-7.153786E-2,6.071691E-2,2.1438036E-2,-1.4746627E-1,7.4045315E-2,-1.1398017E-1,7.0267126E-2,1.8746739E-3,9.917412E-2,7.379385E-2,-2.5248464E-2,-1.1046591E-1,1.239391E-2,7.8164876E-2,-5.204656E-2,2.6267968E-2,8.283123E-2,-8.6454846E-2,-4.894866E-2,-2.7669532E-2,-9.669844E-2],"split_indices":[0,0,3,3,8,7,5,7,0,8,5,0,0,0,5,3,8,5,0,5,8,5,0,8,8,0,0,0,5,3,8,3,0,3,8,3,0,5,8,5,0,3,5,3,0,0,0,0,0,0,0,0,0,0,0,0,0,0,0,0,0,0,0,0,0,0,0,0,0,0,0,0,0],"split_type":[0,0,0,0,0,0,0,0,0,0,0,0,0,0,0,0,0,0,0,0,0,0,0,0,0,0,0,0,0,0,0,0,0,0,0,0,0,0,0,0,0,0,0,0,0,0,0,0,0,0,0,0,0,0,0,0,0,0,0,0,0,0,0,0,0,0,0,0,0,0,0,0,0],"sum_hessian":[8.0592255E2,4.2655566E2,3.793669E2,2.922306E2,1.3432506E2,8.27975E1,2.965694E2,2.9019995E2,2.0306451E0,9.084925E0,1.2524014E2,4.14575E0,7.865176E1,2.920298E2,4.539622E0,7.7509315E1,2.1269064E2,3.6228566E0,5.4620686E0,1.07083664E2,1.8156475E1,3.9031406E1,3.9620346E1,1.4147667E2,1.5055312E2,3.2594266E0,1.2801951E0,2.2828724E0,7.522644E1,6.9520134E1,1.431705E2,2.3214505E0,1.3014061E0,1.03522415E2,3.5612478E0,4.122707E0,1.4033768E1,1.8082466E1,2.0948942E1,2.5479506E1,1.4140841E1,3.5240679E0,1.379526E2,1.4890344E2,1.6496651E0,4.3433628E1,3.179281E1,6.7592094E1,1.9280397E0,1.5280175E0,1.4164249E2,1.1907129E0,1.1307374E0,3.498297E1,6.8539444E1,2.2265522E0,1.3346955E0,1.1429495E0,2.9797575E0,6.525791E0,1.1556675E1,3.1047974E0,1.7844145E1,1.1521727E1,1.3957779E1,9.544451E0,4.59639E0,1.9266961E0,1.5973718E0,4.9795925E1,8.815668E1,5.741694E0,1.4316176E2],"tree_param":{"num_deleted":"0","num_feature":"9","num_nodes":"73","size_leaf_vector":"1"}},{"base_weights":[4.6784032E-2,7.190127E-1,-7.3837715E-1,8.553522E-1,4.5072886E-1,-9.7115564E-1,-1.2499254E-2,8.702411E-1,-7.7456236E-2,-6.6512E-1,5.260179E-1,2.5623763E-1,-1.0418293E0,-1.924966E-1,8.6949897E-1,1.0204144E0,7.7086556E-1,3.616293E-1,-1.06417336E-1,-6.7639545E-2,6.024801E-1,5.95976E-1,-8.4950656E-2,-9.481943E-2,-8.637847E-1,5.897884E-1,-3.5996786E-1,4.102594E-1,1.05170794E-1,1.0334282E0,6.919108E-3,9.020212E-2,6.7769504E-1,-8.853976E-2,6.827237E-2,5.543826E-1,-9.3498774E-2,5.320625E-1,1.1451115E-1,9.381958E-1,-7.6068096E-2,-9.3163747E-1,4.3679404E-1,1.2774535E-1,-4.0924874E-1,-9.518175E-1,2.4012309E-2,7.4659765E-1,-6.948127E-2,6.5455966E-2,8.975812E-2,-3.359019E-2,5.5950593E-2,-7.232424E-2,6.0423017E-2,6.927101E-2,-1.9625658E-2,5.1805478E-2,-1.0515452E-2,9.019202E-2,1.5078623E-2,-8.0318935E-2,4.9525814E-4,-7.4857794E-2,1.22977644E-1,6.740713E-2,-6.32825E-2,-1.0852083E-1,4.5877495E-3,9.766159E-3,-9.271074E-2,7.373973E-4,8.835428E-2],"categories":[],"categories_nodes":[],"categories_segments":[],"categories_sizes":[],"default_left":[0,0,0,0,0,0,0,0,0,0,0,0,0,0,0,0,0,0,0,0,0,0,0,0,0,0,0,0,0,0,0,0,0,0,0,0,0,0,0,0,0,0,0,0,0,0,0,0,0,0,0,0,0,0,0,0,0,0,0,0,0,0,0,0,0,0,0,0,0,0,0,0,0],"id":13,"left_children":[1,3,5,7,9,11,13,15,-1,17,19,21,23,25,27,29,31,33,-1,35,37,39,-1,-1,41,43,45,47,-1,49,-1,-1,51,53,-1,55,-1,57,-1,59,-1,61,63,-1,65,67,69,71,-1,-1,-1,-1,-1,-1,-1,-1,-1,-1,-1,-1,-1,-1,-1,-1,-1,-1,-1,-1,-1,-1,-1,-1,-1],"loss_changes":[4.1541364E2,1.5122894E1,6.1334076E1,8.445023E0,1.2529633E1,2.4112274E1,1.4323916E1,3.3661194E0,0E0,7.0404024E0,6.231018E0,7.694543E0,5.618164E0,1.0021843E1,2.587286E0,1.2198792E0,4.9363556E0,1.0855684E0,0E0,1.1921122E1,6.296097E0,7.8680086E0,0E0,0E0,1.097345E1,1.4317759E1,1.41797285E1,4.511508E0,0E0,1.1050491E0,0E0,0E0,3.5909195E0,2.9454005E0,0E0,3.0015E0,0E0,8.748161E0,0E0,1.3895702E0,0E0,7.749298E0,1.1433736E1,0E0,4.305488E0,1.0098658E1,4.6373405E0,2.0080981E0,0E0,0E0,0E0,0E0,0E0,0E0,0E0,0E0,0E0,0E0,0E0,0E0,0E0,0E0,0E0,0E0,0E0,0E0,0E0,0E0,0E0,0E0,0E0,0E0,0E0],"parents":[2147483647,0,0,1,1,2,2,3,3,4,4,5,5,6,6,7,7,9,9,10,10,11,11,12,12,13,13,14,14,15,15,16,16,17,17,19,19,20,20,21,21,24,24,25,25,26,26,27,27,29,29,32,32,33,33,35,35,37,37,39,39,41,41,42,42,44,44,45,45,46,46,47,47],"right_children":[2,4,6,8,10,12,14,16,-1,18,20,22,24,26,28,30,32,34,-1,36,38,40,-1,-1,42,44,46,48,-1,50,-1,-1,52,54,-1,56,-1,58,-1,60,-1,62,64,-1,66,68,70,72,-1,-1,-1,-1,-1,-1,-1,-1,-1,-1,-1,-1,-1,-1,-1,-1,-1,-1,-1,-1,-1,-1,-1,-1,-1],"split_conditions":[6E0,4E0,6.573276E-1,1.32E1,1.9E1,6.5E0,3.2E1,2E0,-7.7456236E-2,4E0,5.193133E-1,5.522913E-1,3.032015E-1,2.5E1,9.4755876E-1,1.05E1,2.4E1,3E1,-1.06417336E-1,5E0,1.15E1,1.1E1,-8.4950656E-2,-9.481943E-2,1.525E1,7.703436E-1,8.579982E-1,1.03E2,1.05170794E-1,9.4755876E-1,6.919108E-3,9.020212E-2,2.8E1,9.4755876E-1,6.827237E-2,6E0,-9.3498774E-2,8.333333E0,1.1451115E-1,9E0,-7.6068096E-2,1.5E1,1.36E2,1.2774535E-1,2E0,9.75E0,1.43E2,6.3E1,-6.948127E-2,6.5455966E-2,8.975812E-2,-3.359019E-2,5.5950593E-2,-7.232424E-2,6.0423017E-2,6.927101E-2,-1.9625658E-2,5.1805478E-2,-1.0515452E-2,9.019202E-2,1.5078623E-2,-8.0318935E-2,4.9525814E-4,-7.4857794E-2,1.22977644E-1,6.740713E-2,-6.32825E-2,-1.0852083E-1,4.5877495E-3,9.766159E-3,-9.271074E-2,7.373973E-4,8.835428E-2],"split_indices":[0,0,1,3,8,3,6,0,0,8,1,1,1,8,1,3,8,6,0,0,3,0,0,0,3,1,1,8,0,1,0,0,8,1,0,7,0,3,0,0,0,7,8,0,8,3,8,8,0,0,0,0,0,0,0,0,0,0,0,0,0,0,0,0,0,0,0,0,0,0,0,0,0],"split_type":[0,0,0,0,0,0,0,0,0,0,0,0,0,0,0,0,0,0,0,0,0,0,0,0,0,0,0,0,0,0,0,0,0,0,0,0,0,0,0,0,0,0,0,0,0,0,0,0,0,0,0,0,0,0,0,0,0,0,0,0,0,0,0,0,0,0,0,0,0,0,0,0,0],"sum_hessian":[7.850488E2,4.2298633E2,3.6206247E2,2.7900845E2,1.4397789E2,2.7389154E2,8.817094E1,2.772674E2,1.7410479E0,8.605323E0,1.3537257E2,1.4769158E1,2.5912238E2,7.3876114E1,1.4294817E1,1.06722855E2,1.7054454E2,3.5622864E0,5.043037E0,1.5459489E1,1.19913086E2,1.2178164E1,2.590995E0,1.4038573E2,1.1873665E2,1.2581974E1,6.129414E1,7.9817867E0,6.3130307E0,1.0515108E2,1.5717716E0,3.3024303E1,1.3752023E2,2.287906E0,1.2743806E0,1.0196102E1,5.2633867E0,1.1203716E2,7.875922E0,1.0294157E1,1.8840065E0,1.13118774E2,5.6178703E0,5.9679403E0,6.6140337E0,2.3536785E1,3.7757355E1,6.649123E0,1.3326633E0,3.3635548E1,7.151553E1,2.3089056E0,1.3521133E2,1.127178E0,1.160728E0,7.278268E0,2.917834E0,9.544559E1,1.6591574E1,7.8174877E0,2.4766688E0,1.0495168E2,8.167093E0,2.5664797E0,3.051391E0,1.2636448E0,5.350389E0,1.6554104E1,6.9826813E0,3.5694965E1,2.0623913E0,2.5075626E0,4.1415606E0],"tree_param":{"num_deleted":"0","num_feature":"9","num_nodes":"73","size_leaf_vector":"1"}},{"base_weights":[-1.0940333E-2,-9.4549435E-1,4.463141E-1,-1.105525E0,-4.6072632E-1,1.4454614E-1,7.320285E-1,-1.1772037E0,-4.7072768E-1,-1.6334595E-1,-9.996831E-2,2.0558648E-3,6.170345E-1,8.692102E-1,6.006792E-1,-6.5290905E-3,-9.6299596E-2,1.0735664E-1,-7.022501E-1,-8.8866657E-1,2.8454092E-1,-2.983548E-1,2.0847674E-1,7.0442235E-1,2.3887399E-1,6.889857E-1,9.582152E-1,4.2280585E-1,8.918805E-1,7.500044E-2,-6.871065E-2,-2.3458739E-1,-8.892124E-2,-4.0597567E-1,-9.2615895E-2,1.3913862E0,-1.9549622E-1,-9.062837E-1,-1.1107253E-2,4.818417E-1,-1.3657445E-1,7.5072557E-1,-1.7468272E-2,-2.869587E-1,6.924366E-1,7.36063E-1,2.743462E-3,9.049479E-2,8.3275497E-1,4.5367146E-1,-4.4568203E-2,5.696275E-1,8.3034515E-2,2.5664061E-2,-7.6385066E-2,-8.647544E-2,1.2963912E-1,1.3847405E-1,5.305108E-2,-5.255843E-2,7.7269375E-2,-1.1596456E-1,-1.4427296E-2,8.887041E-3,-7.571811E-2,4.4714827E-2,-4.5760177E-2,3.9785445E-2,-3.797968E-2,4.954137E-2,8.293442E-2,1.7570278E-2,-1.1541784E-1,-3.933388E-3,7.144453E-2,2.6837924E-2,6.6907816E-2,-2.76262E-2,3.239506E-2,-6.479334E-2,7.220695E-2,6.418819E-2,3.05854E-2,6.253826E-2,-3.6697272E-2],"categories":[],"categories_nodes":[],"categories_segments":[],"categories_sizes":[],"default_left":[0,0,0,0,0,0,0,0,0,0,0,0,0,0,0,0,0,0,0,0,0,0,0,0,0,0,0,0,0,0,0,0,0,0,0,0,0,0,0,0,0,0,0,0,0,0,0,0,0,0,0,0,0,0,0,0,0,0,0,0,0,0,0,0,0,0,0,0,0,0,0,0,0,0,0,0,0,0,0,0,0,0,0,0,0],"id":14,"left_children":[1,3,5,7,9,11,13,15,17,19,-1,21,23,25,27,29,-1,-1,31,33,35,37,39,41,43,45,47,49,51,-1,-1,53,-1,55,-1,57,59,61,63,65,67,69,-1,71,73,75,77,-1,79,81,-1,83,-1,-1,-1,-1,-1,-1,-1,-1,-1,-1,-1,-1,-1,-1,-1,-1,-1,-1,-1,-1,-1,-1,-1,-1,-1,-1,-1,-1,-1,-1,-1,-1,-1],"loss_changes":[3.1413998E2,1.8226318E1,4.245455E1,7.675003E0,1.4259664E1,1.6245312E1,4.0422516E0,5.020706E0,9.342533E0,1.5172286E1,0E0,1.16214485E1,1.6793518E0,1.2914734E0,6.493473E0,4.501222E0,0E0,0E0,3.261981E0,1.838274E0,1.5760352E1,1.3319204E1,1.0543039E1,2.0824528E0,3.0625446E0,1.4124069E0,7.699127E-1,2.800827E0,1.7336731E0,0E0,0E0,4.2492747E0,0E0,1.2559401E1,0E0,1.0630512E0,1.2001565E1,9.393438E0,6.145729E0,5.372864E0,1.0928433E1,9.7374153E-1,0E0,3.9866824E0,1.0466819E0,1.3652039E0,6.73825E-1,0E0,6.4107246E0,1.7389908E0,0E0,4.2021737E0,0E0,0E0,0E0,0E0,0E0,0E0,0E0,0E0,0E0,0E0,0E0,0E0,0E0,0E0,0E0,0E0,0E0,0E0,0E0,0E0,0E0,0E0,0E0,0E0,0E0,0E0,0E0,0E0,0E0,0E0,0E0,0E0,0E0],"parents":[2147483647,0,0,1,1,2,2,3,3,4,4,5,5,6,6,7,7,8,8,9,9,11,11,12,12,13,13,14,14,15,15,18,18,19,19,20,20,21,21,22,22,23,23,24,24,25,25,26,26,27,27,28,28,31,31,33,33,35,35,36,36,37,37,38,38,39,39,40,40,41,41,43,43,44,44,45,45,46,46,48,48,49,49,51,51],"right_children":[2,4,6,8,10,12,14,16,18,20,-1,22,24,26,28,30,-1,-1,32,34,36,38,40,42,44,46,48,50,52,-1,-1,54,-1,56,-1,58,60,62,64,66,68,70,-1,72,74,76,78,-1,80,82,-1,84,-1,-1,-1,-1,-1,-1,-1,-1,-1,-1,-1,-1,-1,-1,-1,-1,-1,-1,-1,-1,-1,-1,-1,-1,-1,-1,-1,-1,-1,-1,-1,-1,-1],"split_conditions":[5.141243E-1,3.7251356E-1,8.8039213E-1,7.8064513E-1,4.4516128E-1,3.5E1,2.1E1,2E0,7.870968E-1,2.580645E-1,-9.996831E-2,4.4516128E-1,1.17E2,5E0,3.2E1,7E0,-9.6299596E-2,1.0735664E-1,4E0,7.096774E-2,2.9032257E-1,5.6E1,2.5E1,9.483871E-1,1.39E2,5.032258E-1,2.580645E-1,1.47E2,4.903226E-1,7.500044E-2,-6.871065E-2,9.4E1,-8.892124E-2,6.451613E-2,-9.2615895E-2,2.7741936E-1,4.3225807E-1,3.1612903E-1,3.7419355E-1,8.1916815E-1,6.1935484E-1,3.7419355E-1,-1.7468272E-2,1.29E2,7.8039217E-1,1.3548388E-1,5.2903223E-1,9.049479E-2,2.9677418E-1,1.5483871E-1,-4.4568203E-2,7.4E1,8.3034515E-2,2.5664061E-2,-7.6385066E-2,-8.647544E-2,1.2963912E-1,1.3847405E-1,5.305108E-2,-5.255843E-2,7.7269375E-2,-1.1596456E-1,-1.4427296E-2,8.887041E-3,-7.571811E-2,4.4714827E-2,-4.5760177E-2,3.9785445E-2,-3.797968E-2,4.954137E-2,8.293442E-2,1.7570278E-2,-1.1541784E-1,-3.933388E-3,7.144453E-2,2.6837924E-2,6.6907816E-2,-2.76262E-2,3.239506E-2,-6.479334E-2,7.220695E-2,6.418819E-2,3.05854E-2,6.253826E-2,-3.6697272E-2],"split_indices":[1,1,1,5,5,6,6,8,5,5,0,5,8,6,6,7,0,0,7,5,5,8,6,5,8,5,5,8,5,0,0,8,0,5,0,5,5,5,5,1,5,5,0,8,1,5,5,0,5,5,0,8,0,0,0,0,0,0,0,0,0,0,0,0,0,0,0,0,0,0,0,0,0,0,0,0,0,0,0,0,0,0,0,0,0],"split_type":[0,0,0,0,0,0,0,0,0,0,0,0,0,0,0,0,0,0,0,0,0,0,0,0,0,0,0,0,0,0,0,0,0,0,0,0,0,0,0,0,0,0,0,0,0,0,0,0,0,0,0,0,0,0,0,0,0,0,0,0,0,0,0,0,0,0,0,0,0,0,0,0,0,0,0,0,0,0,0,0,0,0,0,0,0],"sum_hessian":[7.331369E2,2.4050856E2,4.9262833E2,1.7985475E2,6.065382E1,2.4031573E2,2.5231258E2,1.6083904E2,1.9015709E1,4.492548E1,1.5728339E1,1.8540634E2,5.4909405E1,1.2066844E2,1.3164415E2,3.59331E0,1.5724573E2,1.6104661E0,1.7405243E1,1.6775167E1,2.8150312E1,7.533036E1,1.1007597E2,4.3901573E1,1.1007831E1,4.2781654E1,7.788679E1,8.324678E1,4.8397366E1,1.6575593E0,1.9357507E0,8.857301E0,8.547942E0,6.901568E0,9.8736E0,7.9412603E0,2.0209053E1,2.3480762E1,5.1849598E1,6.1196743E1,4.887923E1,4.198147E1,1.9201043E0,5.267887E0,5.739943E0,3.9967243E1,2.8144133E0,2.9373615E1,4.851317E1,8.122533E1,2.0214477E0,1.662202E1,3.1775345E1,5.3140545E0,3.5432463E0,5.527181E0,1.3743863E0,4.477041E0,3.4642193E0,1.4773067E1,5.4359846E0,1.2859962E1,1.0620801E1,4.66381E1,5.2114983E0,5.74627E1,3.734043E0,1.6840885E1,3.2038345E1,3.0928633E1,1.1052836E1,4.225684E0,1.0422033E0,1.3828984E0,4.3570447E0,8.872221E0,3.1095022E1,1.5845182E0,1.2298951E0,1.5460902E0,4.696708E1,1.2057928E1,6.9167404E1,1.397867E1,2.64335E0],"tree_param":{"num_deleted":"0","num_feature":"9","num_nodes":"85","size_leaf_vector":"1"}},{"base_weights":[2.7880426E-2,5.456545E-1,-8.543722E-1,7.42707E-1,2.4778375E-2,-8.943965E-1,8.784001E-1,9.36853E-1,6.680753E-1,-9.334289E-2,1.2675233E-1,-9.654312E-1,-4.249075E-1,8.4059894E-2,2.505529E-2,9.4879366E-4,9.523521E-1,7.6778996E-1,5.6757796E-1,-9.7880706E-2,1.7629528E-1,-1.016231E0,-4.5164734E-1,4.6690002E-1,-9.676507E-1,7.6831765E-2,1.1014323E-2,5.3277326E-1,8.555924E-1,3.475356E-1,7.503905E-1,2.1606034E-1,-1.00095585E-1,-1.0975795E0,-7.391063E-1,-8.1379704E-2,-8.354323E-2,-7.6798685E-2,1.0047065E0,-9.53861E-2,1.2239852E-1,7.5283885E-2,2.6148792E-2,5.4512784E-2,7.534631E-2,4.218792E-2,-4.6028517E-2,6.877592E-2,3.2817766E-2,5.7496754E-3,5.054852E-2,-1.6876334E-2,-8.978709E-2,-1.9191522E-2,-9.898323E-2,2.628354E-2,-7.953025E-2,-5.4865453E-2,1.0392649E-1,-7.6741345E-2,6.309492E-2],"categories":[],"categories_nodes":[],"categories_segments":[],"categories_sizes":[],"default_left":[0,0,0,0,0,0,0,0,0,0,0,0,0,0,0,0,0,0,0,0,0,0,0,0,0,0,0,0,0,0,0,0,0,0,0,0,0,0,0,0,0,0,0,0,0,0,0,0,0,0,0,0,0,0,0,0,0,0,0,0,0],"id":15,"left_children":[1,3,5,7,9,11,13,15,17,-1,19,21,23,-1,-1,-1,25,27,29,-1,31,33,35,37,39,-1,-1,41,43,45,47,49,-1,51,53,55,-1,-1,57,-1,59,-1,-1,-1,-1,-1,-1,-1,-1,-1,-1,-1,-1,-1,-1,-1,-1,-1,-1,-1,-1],"loss_changes":[3.3142957E2,4.6906128E1,1.9395676E1,4.179657E0,1.552083E1,8.3533325E0,3.102126E-1,1.2733536E0,1.9998627E0,0E0,8.072329E0,5.477646E0,1.803128E1,0E0,0E0,0E0,4.4529724E-1,2.0031738E0,4.7629356E0,0E0,6.7507014E0,3.8370514E0,4.8009458E0,1.2026816E1,5.7552986E0,0E0,0E0,2.640051E0,6.3657E-1,1.0017202E1,2.1516647E0,6.664669E0,0E0,3.2171173E0,1.21015E1,5.859826E0,0E0,0E0,6.3442135E0,0E0,4.231063E0,0E0,0E0,0E0,0E0,0E0,0E0,0E0,0E0,0E0,0E0,0E0,0E0,0E0,0E0,0E0,0E0,0E0,0E0,0E0,0E0],"parents":[2147483647,0,0,1,1,2,2,3,3,4,4,5,5,6,6,7,7,8,8,10,10,11,11,12,12,16,16,17,17,18,18,20,20,21,21,22,22,23,23,24,24,27,27,28,28,29,29,30,30,31,31,33,33,34,34,35,35,38,38,40,40],"right_children":[2,4,6,8,10,12,14,16,18,-1,20,22,24,-1,-1,-1,26,28,30,-1,32,34,36,38,40,-1,-1,42,44,46,48,50,-1,52,54,56,-1,-1,58,-1,60,-1,-1,-1,-1,-1,-1,-1,-1,-1,-1,-1,-1,-1,-1,-1,-1,-1,-1,-1,-1],"split_conditions":[8E0,5E0,9.806452E-1,2E0,4E0,1.37E2,1.4E1,5E0,2.6E1,-9.334289E-2,2E0,3.7E1,1.42E2,8.4059894E-2,2.505529E-2,9.4879366E-4,1.53E2,8E0,1.3E1,-9.7880706E-2,1.47E2,6.0645163E-1,3.9E1,2.4E1,3.6E1,7.6831765E-2,1.1014323E-2,5E0,2.9032257E-1,1E1,4E0,1.17E2,-1.00095585E-1,2E0,1.3E1,4.3870968E-1,-8.354323E-2,-7.6798685E-2,2.1290323E-1,-9.53861E-2,1.49E2,7.5283885E-2,2.6148792E-2,5.4512784E-2,7.534631E-2,4.218792E-2,-4.6028517E-2,6.877592E-2,3.2817766E-2,5.7496754E-3,5.054852E-2,-1.6876334E-2,-8.978709E-2,-1.9191522E-2,-9.898323E-2,2.628354E-2,-7.953025E-2,-5.4865453E-2,1.0392649E-1,-7.6741345E-2,6.309492E-2],"split_indices":[0,0,5,0,7,8,6,8,6,0,6,6,8,0,0,0,8,7,7,0,8,5,6,6,6,0,0,7,5,7,0,8,0,8,0,5,0,0,5,0,8,0,0,0,0,0,0,0,0,0,0,0,0,0,0,0,0,0,0,0,0],"split_type":[0,0,0,0,0,0,0,0,0,0,0,0,0,0,0,0,0,0,0,0,0,0,0,0,0,0,0,0,0,0,0,0,0,0,0,0,0,0,0,0,0,0,0,0,0,0,0,0,0,0,0,0,0,0,0,0,0,0,0,0,0],"sum_hessian":[7.2351385E2,4.5617603E2,2.6733783E2,3.306587E2,1.25517334E2,2.6177505E2,5.5627584E0,8.8606316E1,2.4205237E2,9.071772E0,1.16445564E2,2.264555E2,3.531956E1,3.6045744E0,1.9581841E0,1.4893045E0,8.711701E1,1.1816643E2,1.2388594E2,3.2826674E0,1.13162895E2,2.051897E2,2.1265799E1,1.3415556E1,2.1904005E1,8.608801E1,1.0289981E0,3.406204E1,8.4104385E1,5.7535E1,6.6350945E1,1.1092164E2,2.241259E0,1.5633711E2,4.885259E1,1.3788456E1,7.477343E0,3.457439E0,9.958117E0,1.8083E1,3.8210065E0,1.0222745E1,2.3839294E1,3.0798498E1,5.330589E1,4.851172E1,9.023281E0,4.9059174E1,1.7291769E1,8.323154E1,2.7690102E1,4.505763E0,1.5183134E2,2.5141119E1,2.3711472E1,9.956808E0,3.8316476E0,1.2796483E0,8.678469E0,1.2888856E0,2.532121E0],"tree_param":{"num_deleted":"0","num_feature":"9","num_nodes":"61","size_leaf_vector":"1"}},{"base_weights":[1.5876764E-2,4.879708E-1,-7.996449E-1,6.9424987E-1,1.2870099E-2,-2.4566914E-1,-9.234916E-1,8.5183495E-1,5.1292163E-1,1.0707194E-1,-9.0636164E-2,-5.293001E-1,8.3654326E-1,-9.809898E-1,-4.6396637E-1,9.3226665E-1,6.8903893E-1,6.156039E-1,2.1048124E-1,5.83057E-1,-2.8992197E-2,-8.5918474E-1,7.564595E-2,1.0596099E0,-7.8006025E-4,-1.0204283E0,-5.10881E-1,5.6763244E-1,-9.487626E-1,8.806238E-2,8.289392E-1,-3.8519475E-1,7.8449345E-1,2.1284533E-1,6.8534786E-1,5.057651E-1,-3.0835268E-1,7.546154E-1,1.25642E-1,-2.0098971E-1,4.5759845E-1,-2.8597233E-1,-1.07514925E-1,3.6596268E-1,-8.002096E-2,1.1530901E-2,1.065823E-1,-1.5944843E-1,-1.0420973E0,4.446326E-1,-8.752022E-2,1.3737733E0,-7.451551E-2,-8.9563586E-2,1.7321697E-2,1.14694685E-2,7.085896E-2,5.5349495E-2,-1.600316E-1,7.184658E-2,3.7549563E-2,6.615036E-2,-8.679309E-2,7.002545E-2,4.815594E-2,-1.45888515E-2,8.606786E-2,-1.4780888E-1,3.1129353E-2,-2.0882158E-2,7.0394464E-2,5.2347712E-2,-4.4369973E-2,2.6468E-3,-9.404912E-2,-2.0300662E-2,7.5350754E-2,-8.8556945E-2,2.4845518E-2,-1.4661982E-2,9.020401E-2,9.456178E-2,-7.6149E-2,-9.477458E-2,-7.0482664E-2,-7.5148754E-2,1.18414246E-1,4.397567E-2,1.3699336E-1],"categories":[],"categories_nodes":[],"categories_segments":[],"categories_sizes":[],"default_left":[0,0,0,0,0,0,0,0,0,0,0,0,0,0,0,0,0,0,0,0,0,0,0,0,0,0,0,0,0,0,0,0,0,0,0,0,0,0,0,0,0,0,0,0,0,0,0,0,0,0,0,0,0,0,0,0,0,0,0,0,0,0,0,0,0,0,0,0,0,0,0,0,0,0,0,0,0,0,0,0,0,0,0,0,0,0,0,0,0],"id":16,"left_children":[1,3,5,7,9,11,13,15,17,19,-1,21,23,25,27,29,31,33,35,37,39,41,43,45,-1,47,49,51,53,-1,55,57,59,61,63,65,67,69,71,73,75,77,-1,79,-1,-1,-1,81,83,85,-1,87,-1,-1,-1,-1,-1,-1,-1,-1,-1,-1,-1,-1,-1,-1,-1,-1,-1,-1,-1,-1,-1,-1,-1,-1,-1,-1,-1,-1,-1,-1,-1,-1,-1,-1,-1,-1,-1],"loss_changes":[2.6599738E2,4.2873825E1,1.7152863E1,8.280579E0,1.4529583E1,1.5067999E1,5.0055237E0,1.4750748E0,4.3537636E0,8.064473E0,0E0,7.7212315E0,1.9513516E0,2.867691E0,1.2982119E1,9.2282104E-1,6.1786385E0,2.866932E0,5.9946194E0,2.0766478E0,8.259317E0,6.5366745E0,4.881898E0,1.841445E0,0E0,2.9614105E0,9.485153E0,1.1648642E1,3.6854887E0,0E0,2.574936E0,1.0686841E1,1.4741898E0,1.4668547E1,9.144249E-1,9.872576E0,1.6225924E1,2.7655125E0,3.5089912E0,1.6646294E1,9.124107E0,6.555264E0,0E0,5.2752805E0,0E0,0E0,0E0,6.7549915E0,2.7075043E0,1.11817E1,0E0,7.2858906E-1,0E0,0E0,0E0,0E0,0E0,0E0,0E0,0E0,0E0,0E0,0E0,0E0,0E0,0E0,0E0,0E0,0E0,0E0,0E0,0E0,0E0,0E0,0E0,0E0,0E0,0E0,0E0,0E0,0E0,0E0,0E0,0E0,0E0,0E0,0E0,0E0,0E0],"parents":[2147483647,0,0,1,1,2,2,3,3,4,4,5,5,6,6,7,7,8,8,9,9,11,11,12,12,13,13,14,14,15,15,16,16,17,17,18,18,19,19,20,20,21,21,22,22,23,23,25,25,26,26,27,27,28,28,30,30,31,31,32,32,33,33,34,34,35,35,36,36,37,37,38,38,39,39,40,40,41,41,43,43,47,47,48,48,49,49,51,51],"right_children":[2,4,6,8,10,12,14,16,18,20,-1,22,24,26,28,30,32,34,36,38,40,42,44,46,-1,48,50,52,54,-1,56,58,60,62,64,66,68,70,72,74,76,78,-1,80,-1,-1,-1,82,84,86,-1,88,-1,-1,-1,-1,-1,-1,-1,-1,-1,-1,-1,-1,-1,-1,-1,-1,-1,-1,-1,-1,-1,-1,-1,-1,-1,-1,-1,-1,-1,-1,-1,-1,-1,-1,-1,-1,-1],"split_conditions":[8E0,5E0,8E0,3E0,1.24E1,3.2E1,1.4E2,3E1,8.2E0,4E0,-9.0636164E-2,1.22E2,9.7E1,3.8E1,1.42E2,4.6E1,3.1E1,3.5E1,2.7E1,1.1E1,1.02E1,4.7E1,1.41E2,1.8E1,-7.8006025E-4,2E0,3.6E1,1.2E1,1.54E2,8.806238E-2,5.7E1,8.6E1,5E0,4E0,6.9E1,9.3E1,3.1E1,5E0,2.8E0,8.333333E0,8E0,1.2E1,-1.07514925E-1,1.36E2,-8.002096E-2,1.1530901E-2,1.065823E-1,9E0,7.5E1,2.5E1,-8.752022E-2,1E1,-7.451551E-2,-8.9563586E-2,1.7321697E-2,1.14694685E-2,7.085896E-2,5.5349495E-2,-1.600316E-1,7.184658E-2,3.7549563E-2,6.615036E-2,-8.679309E-2,7.002545E-2,4.815594E-2,-1.45888515E-2,8.606786E-2,-1.4780888E-1,3.1129353E-2,-2.0882158E-2,7.0394464E-2,5.2347712E-2,-4.4369973E-2,2.6468E-3,-9.404912E-2,-2.0300662E-2,7.5350754E-2,-8.8556945E-2,2.4845518E-2,-1.4661982E-2,9.020401E-2,9.456178E-2,-7.6149E-2,-9.477458E-2,-7.0482664E-2,-7.5148754E-2,1.18414246E-1,4.397567E-2,1.3699336E-1],"split_indices":[0,0,3,0,3,6,8,6,3,3,0,8,8,6,8,8,6,8,6,7,3,8,8,8,0,8,8,0,8,0,8,8,3,0,8,8,6,6,3,3,7,0,0,8,0,0,0,0,8,8,0,7,0,0,0,0,0,0,0,0,0,0,0,0,0,0,0,0,0,0,0,0,0,0,0,0,0,0,0,0,0,0,0,0,0,0,0,0,0],"split_type":[0,0,0,0,0,0,0,0,0,0,0,0,0,0,0,0,0,0,0,0,0,0,0,0,0,0,0,0,0,0,0,0,0,0,0,0,0,0,0,0,0,0,0,0,0,0,0,0,0,0,0,0,0,0,0,0,0,0,0,0,0,0,0,0,0,0,0,0,0,0,0,0,0,0,0,0,0,0,0,0,0,0,0,0,0,0,0,0,0],"sum_hessian":[6.8888354E2,4.3656427E2,2.5231926E2,3.0407834E2,1.3248592E2,4.664706E1,2.056722E2,1.6071211E2,1.4336623E2,1.2325895E2,9.226973E0,3.7365147E1,9.281913E0,1.8179079E2,2.388141E1,1.04403496E2,5.6308624E1,1.06255646E2,3.7110577E1,2.667127E1,9.658768E1,2.3907711E1,1.34574375E1,7.146243E0,2.1356695E0,1.6664034E2,1.515046E1,7.580334E0,1.6301077E1,3.601484E1,6.838866E1,4.347459E0,5.1961163E1,1.628197E1,8.997368E1,2.366647E1,1.3444105E1,1.8923912E1,7.747358E0,7.17964E1,2.4791273E1,1.1682844E1,1.2224866E1,1.1117432E1,2.3400059E0,1.9908074E0,5.1554356E0,4.296206E0,1.6234413E2,5.831825E0,9.318635E0,4.9838266E0,2.5965075E0,1.425163E1,2.049446E0,5.5019736E0,6.288668E1,2.9511776E0,1.3962812E0,3.683409E1,1.5127072E1,1.1298791E1,4.983178E0,2.4552006E1,6.542167E1,1.103122E1,1.2635249E1,3.6780124E0,9.766093E0,1.9595342E0,1.6964378E1,4.3807416E0,3.3666167E0,5.8671394E1,1.3125007E1,1.02343235E1,1.4556949E1,4.556429E0,7.1264153E0,6.9003944E0,4.217037E0,1.4128066E0,2.8833995E0,8.2740875E1,7.960326E1,2.5357351E0,3.2960896E0,2.2155626E0,2.7682638E0],"tree_param":{"num_deleted":"0","num_feature":"9","num_nodes":"89","size_leaf_vector":"1"}},{"base_weights":[1.8246444E-2,5.983575E-1,-6.401052E-1,7.433144E-1,3.0136016E-1,-1.0874022E0,-2.6162478E-1,4.872445E-1,8.6172533E-1,-9.024495E-2,3.7071642E-1,-1.116164E0,2.6301617E-2,-9.794625E-2,-1.819955E-1,6.028139E-1,-4.105004E-1,8.7840617E-1,-2.7393557E-2,8.8472E-2,4.8214558E-1,-9.2192896E-2,-6.722095E-1,-2.735292E-1,3.9064005E-1,-3.277954E-2,6.316377E-1,6.9303554E-1,-1.509753E0,9.8377675E-1,8.019177E-1,3.460192E-1,-3.5040772E-1,6.8947667E-1,2.2529474E-1,1.1954772E-1,-8.609918E-2,2.8157493E-1,-3.8803497E-1,4.862866E-1,-5.6358647E-2,7.039105E-2,3.0891802E-2,-1.2024961E-2,7.970975E-2,-1.8944664E-1,4.009084E-3,3.2640643E-2,8.130653E-2,5.128266E-2,7.048805E-2,7.99573E-2,1.4620551E-2,2.2139335E-2,-5.340672E-2,7.622777E-2,3.175738E-2,1.2316775E-3,5.4095592E-2,-9.367762E-2,3.564737E-2,-4.267344E-2,2.517789E-3,1.8722346E-2,7.5415514E-2],"categories":[],"categories_nodes":[],"categories_segments":[],"categories_sizes":[],"default_left":[0,0,0,0,0,0,0,0,0,0,0,0,0,0,0,0,0,0,0,0,0,0,0,0,0,0,0,0,0,0,0,0,0,0,0,0,0,0,0,0,0,0,0,0,0,0,0,0,0,0,0,0,0,0,0,0,0,0,0,0,0,0,0,0,0],"id":17,"left_children":[1,3,5,7,9,11,13,15,17,-1,19,21,-1,-1,23,25,27,29,-1,31,33,-1,35,37,39,-1,41,43,45,47,49,51,53,55,57,-1,-1,59,61,63,-1,-1,-1,-1,-1,-1,-1,-1,-1,-1,-1,-1,-1,-1,-1,-1,-1,-1,-1,-1,-1,-1,-1,-1,-1],"loss_changes":[2.5501804E2,1.50568695E1,5.2668198E1,6.79187E0,1.2126495E1,6.1933594E0,1.2866267E1,8.2889385E0,3.5413818E0,0E0,3.5233955E0,1.4850616E0,0E0,0E0,8.434306E0,2.2747364E0,1.2491118E1,4.958954E-1,0E0,3.8873565E0,4.1618004E0,0E0,1.2987442E1,8.853361E0,2.6791594E0,0E0,3.7771702E0,1.5295262E0,6.868104E0,7.5941086E-1,6.807518E-1,2.1110644E0,2.734581E0,3.0401669E0,3.5571895E0,0E0,0E0,6.264346E0,6.9977856E0,2.2094946E0,0E0,0E0,0E0,0E0,0E0,0E0,0E0,0E0,0E0,0E0,0E0,0E0,0E0,0E0,0E0,0E0,0E0,0E0,0E0,0E0,0E0,0E0,0E0,0E0,0E0],"parents":[2147483647,0,0,1,1,2,2,3,3,4,4,5,5,6,6,7,7,8,8,10,10,11,11,14,14,15,15,16,16,17,17,19,19,20,20,22,22,23,23,24,24,26,26,27,27,28,28,29,29,30,30,31,31,32,32,33,33,34,34,37,37,38,38,39,39],"right_children":[2,4,6,8,10,12,14,16,18,-1,20,22,-1,-1,24,26,28,30,-1,32,34,-1,36,38,40,-1,42,44,46,48,50,52,54,56,58,-1,-1,60,62,64,-1,-1,-1,-1,-1,-1,-1,-1,-1,-1,-1,-1,-1,-1,-1,-1,-1,-1,-1,-1,-1,-1,-1,-1,-1],"split_conditions":[6E0,4E0,3.7251356E-1,8.1916815E-1,4.613734E-1,9.806452E-1,5E0,7.870968E-1,1.06E1,-9.024495E-2,2.6451612E-1,7.8064513E-1,2.6301617E-2,-9.794625E-2,3.6E1,2.5E0,2E0,2E0,-2.7393557E-2,5E0,2.5E1,-9.2192896E-2,7.870968E-1,1.4E1,1.32E1,-3.277954E-2,2.7E1,7.4E0,9.2E0,7.096774E-2,3.0967742E-1,2.4E0,1.2903225E-1,5.8E0,1E0,1.1954772E-1,-8.609918E-2,4.6E0,8.8039213E-1,1.12E1,-5.6358647E-2,7.039105E-2,3.0891802E-2,-1.2024961E-2,7.970975E-2,-1.8944664E-1,4.009084E-3,3.2640643E-2,8.130653E-2,5.128266E-2,7.048805E-2,7.99573E-2,1.4620551E-2,2.2139335E-2,-5.340672E-2,7.622777E-2,3.175738E-2,1.2316775E-3,5.4095592E-2,-9.367762E-2,3.564737E-2,-4.267344E-2,2.517789E-3,1.8722346E-2,7.5415514E-2],"split_indices":[0,0,1,1,1,5,6,5,3,0,5,5,0,0,6,3,0,0,0,0,6,0,5,6,3,0,6,3,3,5,5,3,5,3,1,0,0,3,1,3,0,0,0,0,0,0,0,0,0,0,0,0,0,0,0,0,0,0,0,0,0,0,0,0,0],"split_type":[0,0,0,0,0,0,0,0,0,0,0,0,0,0,0,0,0,0,0,0,0,0,0,0,0,0,0,0,0,0,0,0,0,0,0,0,0,0,0,0,0,0,0,0,0,0,0,0,0,0,0,0,0,0,0,0,0,0,0,0,0,0,0,0,0],"sum_hessian":[6.657286E2,3.5394162E2,3.1178696E2,2.3684218E2,1.1709945E2,1.4204352E2,1.6974345E2,7.650687E1,1.6033531E2,4.71242E0,1.12387024E2,1.3942374E2,2.6197834E0,1.1869389E1,1.5787405E2,6.807224E1,8.434621E0,1.5841138E2,1.9239336E0,3.231889E1,8.006814E1,1.2742423E2,1.19995E1,1.3656671E2,2.1307356E1,1.5183486E0,6.6553894E1,4.39352E0,4.041101E0,6.16376E1,9.677377E1,2.0500307E1,1.1818583E1,4.337295E1,3.6695187E1,1.4618629E0,1.0537638E1,2.3103909E1,1.134628E2,2.0107176E1,1.2001808E0,3.1806028E1,3.4747868E1,1.2956831E0,3.097837E0,2.272504E0,1.7685966E0,4.0228114E0,5.761479E1,3.4919582E1,6.1854195E1,3.0741947E0,1.7426111E1,4.0123963E0,7.8061867E0,2.1635359E1,2.1737595E1,2.5744837E1,1.0950348E1,1.7212359E0,2.1382671E1,8.405979E1,2.9403008E1,1.3924074E1,6.183101E0],"tree_param":{"num_deleted":"0","num_feature":"9","num_nodes":"65","size_leaf_vector":"1"}},{"base_weights":[1.7159028E-2,4.3469888E-1,-7.2974604E-1,6.7740184E-1,1.5947537E-1,-1.432449E-1,-8.5473436E-1,6.919746E-1,-7.150462E-2,4.6951827E-1,-2.3841862E-2,-7.591858E-1,2.6943192E-1,-6.497568E-1,-9.924073E-1,8.947172E-1,5.8128124E-1,5.093697E-1,-4.8259158E-2,-1.0470468E-1,7.94899E-1,-9.775749E-2,3.654142E-1,4.3738535E-1,-8.7881505E-2,-9.578965E-2,-3.8787386E-1,4.408249E-2,-1.0313596E0,9.1343606E-1,-5.048588E-3,8.0601645E-1,3.7191004E-1,3.9318848E-1,1.0245984E0,-6.561329E-1,5.0334837E-2,9.671505E-1,2.3979896E-1,7.853649E-2,-6.721607E-2,-2.4547016E-2,9.150562E-1,-5.410908E-1,4.2514768E-1,-7.168364E-2,1.2544303E-1,-1.0568776E0,2.3565633E-2,6.382539E-2,8.1866264E-2,7.5992756E-2,3.4627844E-2,2.0826256E-2,7.898024E-2,4.2807687E-2,-1.7335886E-2,8.926317E-2,2.107526E-2,-1.2459552E-1,-2.5990937E-2,1.7216755E-2,-4.2307895E-2,1.9646173E-2,8.872443E-2,3.8678993E-3,2.879887E-2,-8.7194204E-2,2.0866225E-2,1.0131346E-1,-2.9028926E-2,-1.6150206E-2,-9.042986E-2,1.2152848E-1,-7.460101E-2,-6.989048E-2,-9.154318E-2],"categories":[],"categories_nodes":[],"categories_segments":[],"categories_sizes":[],"default_left":[0,0,0,0,0,0,0,0,0,0,0,0,0,0,0,0,0,0,0,0,0,0,0,0,0,0,0,0,0,0,0,0,0,0,0,0,0,0,0,0,0,0,0,0,0,0,0,0,0,0,0,0,0,0,0,0,0,0,0,0,0,0,0,0,0,0,0,0,0,0,0,0,0,0,0,0,0],"id":18,"left_children":[1,3,5,7,9,11,13,15,-1,17,19,21,23,25,27,29,31,33,-1,35,37,-1,39,41,-1,-1,43,45,47,49,-1,51,53,55,57,59,61,63,65,-1,-1,67,69,71,73,-1,-1,75,-1,-1,-1,-1,-1,-1,-1,-1,-1,-1,-1,-1,-1,-1,-1,-1,-1,-1,-1,-1,-1,-1,-1,-1,-1,-1,-1,-1,-1],"loss_changes":[2.0444139E2,2.7977722E1,1.710968E1,5.7272873E0,1.1283971E1,1.1006554E1,4.8178406E0,4.453926E0,0E0,3.4599133E0,8.398228E0,9.456177E0,6.4965973E0,1.1104862E1,4.6441193E0,1.4277916E0,6.5802116E0,3.8858204E0,0E0,9.880795E0,8.586483E-1,0E0,5.1467333E0,5.326288E0,0E0,0E0,7.212488E0,8.689711E0,4.027031E0,1.3671875E-1,0E0,3.3295593E0,5.0678577E0,5.3161764E0,5.7787323E-1,7.062414E0,8.788151E0,5.851822E-1,7.534243E-2,0E0,0E0,4.2956133E0,5.7773438E0,9.287605E0,1.5449493E1,0E0,0E0,7.2966003E-1,0E0,0E0,0E0,0E0,0E0,0E0,0E0,0E0,0E0,0E0,0E0,0E0,0E0,0E0,0E0,0E0,0E0,0E0,0E0,0E0,0E0,0E0,0E0,0E0,0E0,0E0,0E0,0E0,0E0],"parents":[2147483647,0,0,1,1,2,2,3,3,4,4,5,5,6,6,7,7,9,9,10,10,11,11,12,12,13,13,14,14,15,15,16,16,17,17,19,19,20,20,22,22,23,23,26,26,27,27,28,28,29,29,31,31,32,32,33,33,34,34,35,35,36,36,37,37,38,38,41,41,42,42,43,43,44,44,47,47],"right_children":[2,4,6,8,10,12,14,16,-1,18,20,22,24,26,28,30,32,34,-1,36,38,-1,40,42,-1,-1,44,46,48,50,-1,52,54,56,58,60,62,64,66,-1,-1,68,70,72,74,-1,-1,76,-1,-1,-1,-1,-1,-1,-1,-1,-1,-1,-1,-1,-1,-1,-1,-1,-1,-1,-1,-1,-1,-1,-1,-1,-1,-1,-1,-1,-1],"split_conditions":[8E0,4E0,8E0,1.32E1,6E0,1E1,1.3E1,2E0,-7.150462E-2,1.47E2,3.6E1,1.4E1,1.6E1,1.1E1,9E0,1.05E1,6.8E1,1.33E2,-4.8259158E-2,4.3E1,4.9E1,-9.775749E-2,1.6E1,3E1,-8.7881505E-2,-9.578965E-2,1.4E2,2E1,1.54E2,2.5E1,-5.048588E-3,6.6E0,1.47E2,5E0,1E1,7.2E0,1.24E2,5E0,1.23E2,7.853649E-2,-6.721607E-2,4.6E0,1.03E2,8.5E1,1.42E2,-7.168364E-2,1.2544303E-1,1.8E1,2.3565633E-2,6.382539E-2,8.1866264E-2,7.5992756E-2,3.4627844E-2,2.0826256E-2,7.898024E-2,4.2807687E-2,-1.7335886E-2,8.926317E-2,2.107526E-2,-1.2459552E-1,-2.5990937E-2,1.7216755E-2,-4.2307895E-2,1.9646173E-2,8.872443E-2,3.8678993E-3,2.879887E-2,-8.7194204E-2,2.0866225E-2,1.0131346E-1,-2.9028926E-2,-1.6150206E-2,-9.042986E-2,1.2152848E-1,-7.460101E-2,-6.989048E-2,-9.154318E-2],"split_indices":[0,0,3,3,3,7,0,0,0,8,6,0,0,3,3,3,8,8,0,8,8,0,0,6,0,0,8,0,8,6,0,3,8,3,7,3,8,0,8,0,0,3,8,8,8,0,0,6,0,0,0,0,0,0,0,0,0,0,0,0,0,0,0,0,0,0,0,0,0,0,0,0,0,0,0,0,0],"split_type":[0,0,0,0,0,0,0,0,0,0,0,0,0,0,0,0,0,0,0,0,0,0,0,0,0,0,0,0,0,0,0,0,0,0,0,0,0,0,0,0,0,0,0,0,0,0,0,0,0,0,0,0,0,0,0,0,0,0,0,0,0,0,0,0,0,0,0,0,0,0,0,0,0,0,0,0,0],"sum_hessian":[6.5353235E2,4.1946066E2,2.340717E2,2.2212276E2,1.973379E2,4.14967E1,1.92575E2,2.2063599E2,1.4867725E0,7.27445E1,1.24593414E2,1.631142E1,2.5185278E1,7.9672424E1,1.1290257E2,7.541864E1,1.4521735E2,7.064531E1,2.0991921E0,1.1418779E2,1.0405625E1,1.14946785E1,4.816743E0,2.3037104E1,2.1481733E0,2.4619444E1,5.5052982E1,4.0845337E0,1.0881804E2,7.401843E1,1.4002055E0,6.866446E1,7.655288E1,5.9085083E1,1.1560224E1,2.4350052E1,8.983774E1,7.3748546E0,3.0307703E0,3.3102932E0,1.5064495E0,1.219374E1,1.0843365E1,4.6604637E1,8.448345E0,2.780976E0,1.3035575E0,1.06962425E2,1.8556191E0,4.0094563E1,3.392387E1,4.8440403E1,2.0224056E1,6.600675E1,1.0546126E1,4.8031757E1,1.10533285E1,9.90735E0,1.6528738E0,5.5491643E0,1.8800886E1,7.0419914E1,1.9417822E1,1.6607361E0,5.7141185E0,1.7096634E0,1.321107E0,1.9805464E0,1.0213194E1,8.511999E0,2.3313653E0,3.0430359E1,1.617428E1,4.6126823E0,3.8356633E0,3.8095425E1,6.8867E1],"tree_param":{"num_deleted":"0","num_feature":"9","num_nodes":"77","size_leaf_vector":"1"}},{"base_weights":[-1.7152313E-2,-8.8642144E-1,3.4710994E-1,3.8959026E-1,-9.8160833E-1,5.778418E-1,-2.8992806E-2,-3.6834966E-2,9.600369E-1,-8.791506E-2,-6.233426E-1,3.6520523E-1,7.2328943E-1,-3.938049E-1,1.1516331E-1,4.322858E-1,-8.7189645E-2,1.0306256E-1,1.9968966E-2,-7.1725464E-1,8.228541E-2,6.055508E-1,1.4098181E-1,9.035329E-1,6.362782E-1,-7.680655E-1,3.881023E-1,-6.7819583E-1,1.7139043E-1,-2.2835581E-1,6.982165E-2,2.6167595E-1,-9.0720826E-1,6.4638025E-1,-4.6758514E-2,8.638742E-1,4.867163E-2,9.4938254E-1,-4.2958125E-2,4.613887E-1,6.7768335E-1,-3.037346E-1,-1.0926546E-1,7.6486665E-1,-7.3883384E-2,2.6628803E-2,-9.1485256E-1,2.0304193E-1,-7.7944905E-2,5.77667E-2,-7.8312285E-2,5.775857E-2,-6.276427E-2,-9.394667E-2,-5.0042562E-2,-7.1637207E-3,5.832712E-2,1.381079E-2,7.720192E-2,-2.4028149E-2,2.8388811E-2,7.846217E-2,2.0525455E-2,2.0716505E-2,-2.7428713E-2,3.1519036E-3,4.525144E-2,5.8368847E-2,4.1777804E-2,1.7601537E-2,-9.1600075E-2,1.943817E-2,8.2400225E-2,-1.0017699E-1,-3.5571363E-2,9.891678E-3,9.679278E-2],"categories":[],"categories_nodes":[],"categories_segments":[],"categories_sizes":[],"default_left":[0,0,0,0,0,0,0,0,0,0,0,0,0,0,0,0,0,0,0,0,0,0,0,0,0,0,0,0,0,0,0,0,0,0,0,0,0,0,0,0,0,0,0,0,0,0,0,0,0,0,0,0,0,0,0,0,0,0,0,0,0,0,0,0,0,0,0,0,0,0,0,0,0,0,0,0,0],"id":19,"left_children":[1,3,5,7,9,11,13,15,17,-1,19,21,23,25,27,29,-1,-1,-1,31,-1,33,35,37,39,41,43,45,47,49,-1,51,53,55,-1,57,59,61,63,65,67,69,-1,71,-1,-1,73,75,-1,-1,-1,-1,-1,-1,-1,-1,-1,-1,-1,-1,-1,-1,-1,-1,-1,-1,-1,-1,-1,-1,-1,-1,-1,-1,-1,-1,-1],"loss_changes":[1.9786131E2,2.2794159E1,3.8232647E1,3.3253632E0,6.544861E0,8.178658E0,8.901243E0,4.7702093E0,1.0361896E0,0E0,7.6787624E0,5.9990673E0,1.9514236E0,1.4321611E1,5.534988E0,2.1596365E0,0E0,0E0,0E0,8.219242E0,0E0,3.0107403E0,3.9426727E0,2.2133827E0,4.9850082E-1,8.673534E0,8.70065E0,2.2763925E0,4.3402762E0,3.194602E0,0E0,4.299546E0,1.9871521E0,3.2831173E0,0E0,3.02001E-1,5.878654E0,7.879181E-1,3.84852E-1,1.0589685E0,3.329506E-1,8.938638E0,0E0,1.5643363E0,0E0,0E0,5.4486275E-1,8.802981E0,0E0,0E0,0E0,0E0,0E0,0E0,0E0,0E0,0E0,0E0,0E0,0E0,0E0,0E0,0E0,0E0,0E0,0E0,0E0,0E0,0E0,0E0,0E0,0E0,0E0,0E0,0E0,0E0,0E0],"parents":[2147483647,0,0,1,1,2,2,3,3,4,4,5,5,6,6,7,7,8,8,10,10,11,11,12,12,13,13,14,14,15,15,19,19,21,21,22,22,23,23,24,24,25,25,26,26,27,27,28,28,29,29,31,31,32,32,33,33,35,35,36,36,37,37,38,38,39,39,40,40,41,41,43,43,46,46,47,47],"right_children":[2,4,6,8,10,12,14,16,18,-1,20,22,24,26,28,30,-1,-1,-1,32,-1,34,36,38,40,42,44,46,48,50,-1,52,54,56,-1,58,60,62,64,66,68,70,-1,72,-1,-1,74,76,-1,-1,-1,-1,-1,-1,-1,-1,-1,-1,-1,-1,-1,-1,-1,-1,-1,-1,-1,-1,-1,-1,-1,-1,-1,-1,-1,-1,-1],"split_conditions":[5.141243E-1,5E0,5E0,2.5E1,3.7251356E-1,8.8039213E-1,6.573276E-1,1.02E1,2.6E1,-8.791506E-2,2E1,3E0,2E0,1.15E1,1.1E1,4.3399638E-1,-8.7189645E-2,1.0306256E-1,1.9968966E-2,4.137255E-1,8.228541E-2,3.8E1,3E0,3.8E1,5E0,5.5943036E-1,1.2E1,2.8E0,1.24E1,4E0,6.982165E-2,1.15E1,1.1E1,3E0,-4.6758514E-2,8E0,3.1E1,7.6E0,1.2E0,4E0,5.8E0,7.6E0,-1.0926546E-1,1.3E1,-7.3883384E-2,2.6628803E-2,8E0,1.125E1,-7.7944905E-2,5.77667E-2,-7.8312285E-2,5.775857E-2,-6.276427E-2,-9.394667E-2,-5.0042562E-2,-7.1637207E-3,5.832712E-2,1.381079E-2,7.720192E-2,-2.4028149E-2,2.8388811E-2,7.846217E-2,2.0525455E-2,2.0716505E-2,-2.7428713E-2,3.1519036E-3,4.525144E-2,5.8368847E-2,4.1777804E-2,1.7601537E-2,-9.1600075E-2,1.943817E-2,8.2400225E-2,-1.0017699E-1,-3.5571363E-2,9.891678E-3,9.679278E-2],"split_indices":[1,0,0,6,1,1,1,3,6,0,0,0,0,3,6,1,0,0,0,1,0,6,6,6,6,1,0,3,3,0,0,3,3,3,0,3,6,3,3,3,3,3,0,3,0,0,3,3,0,0,0,0,0,0,0,0,0,0,0,0,0,0,0,0,0,0,0,0,0,0,0,0,0,0,0,0,0],"split_type":[0,0,0,0,0,0,0,0,0,0,0,0,0,0,0,0,0,0,0,0,0,0,0,0,0,0,0,0,0,0,0,0,0,0,0,0,0,0,0,0,0,0,0,0,0,0,0,0,0,0,0,0,0,0,0,0,0,0,0,0,0,0,0,0,0,0,0,0,0,0,0,0,0,0,0,0,0],"sum_hessian":[6.2290234E2,1.8351997E2,4.3938235E2,1.2525024E1,1.7099495E2,2.7198706E2,1.673953E2,7.7025642E0,4.82246E0,1.2725295E2,4.3741997E1,1.1190248E2,1.6008458E2,4.6921215E1,1.20474075E2,5.736483E0,1.966081E0,2.7421012E0,2.080359E0,4.1924377E1,1.8176222E0,5.318872E1,5.8713764E1,4.9064163E1,1.1102041E2,3.1744421E1,1.5176794E1,7.2411017E0,1.1323297E2,2.487419E0,3.249064E0,6.7517076E0,3.517267E1,5.186606E1,1.3226628E0,5.702036E0,5.3011726E1,4.6794315E1,2.2698503E0,2.3577156E1,8.744325E1,1.8714912E1,1.3029508E1,1.2113971E1,3.0628226E0,1.2963338E0,5.944768E0,1.10989525E2,2.2434504E0,1.1142886E0,1.3731303E0,4.9040213E0,1.8476865E0,1.6426064E1,1.8746605E1,5.231802E0,4.6634254E1,1.0733926E0,4.6286435E0,2.478193E1,2.8229795E1,4.4368153E1,2.4261627E0,1.1991627E0,1.0706875E0,4.9438515E0,1.8633305E1,